digraph Tree {
node [shape=box, style="filled", color="black", fontname="helvetica"] ;
edge [fontname="helvetica"] ;
0 [label="urban_proj <= 3154.385\ngini = 0.5\nsamples = 4672\nvalue = [2336, 2336]", fillcolor="#ffffff"] ;
1 [label="Feature7 <= 22.236\ngini = 0.484\nsamples = 3214\nvalue = [1320, 1894]", fillcolor="#c3e1f7"] ;
0 -> 1 [labeldistance=2.5, labelangle=45, headlabel="True"] ;
2 [label="mrt <= 0.793\ngini = 0.5\nsamples = 1740\nvalue = [856, 884]", fillcolor="#f9fcfe"] ;
1 -> 2 ;
3 [label="mrt <= 0.114\ngini = 0.498\nsamples = 1433\nvalue = [758, 675]", fillcolor="#fcf1e9"] ;
2 -> 3 ;
4 [label="park <= 0.237\ngini = 0.347\nsamples = 139\nvalue = [31, 108]", fillcolor="#72b9ec"] ;
3 -> 4 ;
5 [label="school <= 0.268\ngini = 0.477\nsamples = 61\nvalue = [24, 37]", fillcolor="#b9ddf6"] ;
4 -> 5 ;
6 [label="park <= 0.234\ngini = 0.198\nsamples = 27\nvalue = [3, 24]", fillcolor="#52a9e8"] ;
5 -> 6 ;
7 [label="urban_proj <= 1148.495\ngini = 0.142\nsamples = 26\nvalue = [2, 24]", fillcolor="#49a5e7"] ;
6 -> 7 ;
8 [label="gini = 0.0\nsamples = 19\nvalue = [0, 19]", fillcolor="#399de5"] ;
7 -> 8 ;
9 [label="school <= 0.082\ngini = 0.408\nsamples = 7\nvalue = [2, 5]", fillcolor="#88c4ef"] ;
7 -> 9 ;
10 [label="gini = 0.0\nsamples = 4\nvalue = [0, 4]", fillcolor="#399de5"] ;
9 -> 10 ;
11 [label="school <= 0.193\ngini = 0.444\nsamples = 3\nvalue = [2, 1]", fillcolor="#f2c09c"] ;
9 -> 11 ;
12 [label="gini = 0.0\nsamples = 2\nvalue = [2, 0]", fillcolor="#e58139"] ;
11 -> 12 ;
13 [label="gini = 0.0\nsamples = 1\nvalue = [0, 1]", fillcolor="#399de5"] ;
11 -> 13 ;
14 [label="gini = 0.0\nsamples = 1\nvalue = [1, 0]", fillcolor="#e58139"] ;
6 -> 14 ;
15 [label="rob <= 0.528\ngini = 0.472\nsamples = 34\nvalue = [21, 13]", fillcolor="#f5cfb4"] ;
5 -> 15 ;
16 [label="mrt <= 0.069\ngini = 0.42\nsamples = 10\nvalue = [3, 7]", fillcolor="#8ec7f0"] ;
15 -> 16 ;
17 [label="gini = 0.0\nsamples = 3\nvalue = [3, 0]", fillcolor="#e58139"] ;
16 -> 17 ;
18 [label="gini = 0.0\nsamples = 7\nvalue = [0, 7]", fillcolor="#399de5"] ;
16 -> 18 ;
19 [label="Feature4 <= 0.074\ngini = 0.375\nsamples = 24\nvalue = [18, 6]", fillcolor="#eeab7b"] ;
15 -> 19 ;
20 [label="gini = 0.0\nsamples = 3\nvalue = [0, 3]", fillcolor="#399de5"] ;
19 -> 20 ;
21 [label="mrt <= 0.025\ngini = 0.245\nsamples = 21\nvalue = [18, 3]", fillcolor="#e9965a"] ;
19 -> 21 ;
22 [label="gini = 0.0\nsamples = 1\nvalue = [0, 1]", fillcolor="#399de5"] ;
21 -> 22 ;
23 [label="Feature2 <= 6.5\ngini = 0.18\nsamples = 20\nvalue = [18, 2]", fillcolor="#e88f4f"] ;
21 -> 23 ;
24 [label="mrt <= 0.089\ngini = 0.346\nsamples = 9\nvalue = [7, 2]", fillcolor="#eca572"] ;
23 -> 24 ;
25 [label="park <= 0.183\ngini = 0.444\nsamples = 3\nvalue = [1, 2]", fillcolor="#9ccef2"] ;
24 -> 25 ;
26 [label="gini = 0.0\nsamples = 2\nvalue = [0, 2]", fillcolor="#399de5"] ;
25 -> 26 ;
27 [label="gini = 0.0\nsamples = 1\nvalue = [1, 0]", fillcolor="#e58139"] ;
25 -> 27 ;
28 [label="gini = 0.0\nsamples = 6\nvalue = [6, 0]", fillcolor="#e58139"] ;
24 -> 28 ;
29 [label="gini = 0.0\nsamples = 11\nvalue = [11, 0]", fillcolor="#e58139"] ;
23 -> 29 ;
30 [label="mrt <= 0.089\ngini = 0.163\nsamples = 78\nvalue = [7, 71]", fillcolor="#4da7e8"] ;
4 -> 30 ;
31 [label="gini = 0.062\nsamples = 62\nvalue = [2, 60]", fillcolor="#40a0e6"] ;
30 -> 31 ;
32 [label="park <= 0.379\ngini = 0.43\nsamples = 16\nvalue = [5, 11]", fillcolor="#93caf1"] ;
30 -> 32 ;
33 [label="gini = 0.0\nsamples = 9\nvalue = [0, 9]", fillcolor="#399de5"] ;
32 -> 33 ;
34 [label="mrt <= 0.107\ngini = 0.408\nsamples = 7\nvalue = [5, 2]", fillcolor="#efb388"] ;
32 -> 34 ;
35 [label="gini = 0.0\nsamples = 5\nvalue = [5, 0]", fillcolor="#e58139"] ;
34 -> 35 ;
36 [label="gini = 0.0\nsamples = 2\nvalue = [0, 2]", fillcolor="#399de5"] ;
34 -> 36 ;
37 [label="rob <= 0.561\ngini = 0.492\nsamples = 1294\nvalue = [727, 567]", fillcolor="#f9e3d3"] ;
3 -> 37 ;
38 [label="mrt <= 0.602\ngini = 0.49\nsamples = 474\nvalue = [204, 270]", fillcolor="#cfe7f9"] ;
37 -> 38 ;
39 [label="mrt <= 0.308\ngini = 0.499\nsamples = 383\nvalue = [183, 200]", fillcolor="#eef7fd"] ;
38 -> 39 ;
40 [label="park <= 0.069\ngini = 0.453\nsamples = 159\nvalue = [55, 104]", fillcolor="#a2d1f3"] ;
39 -> 40 ;
41 [label="rob <= 0.477\ngini = 0.142\nsamples = 13\nvalue = [12, 1]", fillcolor="#e78c49"] ;
40 -> 41 ;
42 [label="gini = 0.0\nsamples = 12\nvalue = [12, 0]", fillcolor="#e58139"] ;
41 -> 42 ;
43 [label="gini = 0.0\nsamples = 1\nvalue = [0, 1]", fillcolor="#399de5"] ;
41 -> 43 ;
44 [label="Feature4 <= 0.208\ngini = 0.416\nsamples = 146\nvalue = [43, 103]", fillcolor="#8cc6f0"] ;
40 -> 44 ;
45 [label="school <= 0.146\ngini = 0.384\nsamples = 139\nvalue = [36, 103]", fillcolor="#7ebfee"] ;
44 -> 45 ;
46 [label="park <= 0.102\ngini = 0.122\nsamples = 46\nvalue = [3, 43]", fillcolor="#47a4e7"] ;
45 -> 46 ;
47 [label="mrt <= 0.264\ngini = 0.444\nsamples = 3\nvalue = [2, 1]", fillcolor="#f2c09c"] ;
46 -> 47 ;
48 [label="gini = 0.0\nsamples = 2\nvalue = [2, 0]", fillcolor="#e58139"] ;
47 -> 48 ;
49 [label="gini = 0.0\nsamples = 1\nvalue = [0, 1]", fillcolor="#399de5"] ;
47 -> 49 ;
50 [label="mrt <= 0.283\ngini = 0.045\nsamples = 43\nvalue = [1, 42]", fillcolor="#3e9fe6"] ;
46 -> 50 ;
51 [label="gini = 0.0\nsamples = 42\nvalue = [0, 42]", fillcolor="#399de5"] ;
50 -> 51 ;
52 [label="gini = 0.0\nsamples = 1\nvalue = [1, 0]", fillcolor="#e58139"] ;
50 -> 52 ;
53 [label="Feature4 <= 0.064\ngini = 0.458\nsamples = 93\nvalue = [33, 60]", fillcolor="#a6d3f3"] ;
45 -> 53 ;
54 [label="gini = 0.0\nsamples = 4\nvalue = [4, 0]", fillcolor="#e58139"] ;
53 -> 54 ;
55 [label="school <= 0.212\ngini = 0.439\nsamples = 89\nvalue = [29, 60]", fillcolor="#99ccf2"] ;
53 -> 55 ;
56 [label="mrt <= 0.281\ngini = 0.278\nsamples = 30\nvalue = [5, 25]", fillcolor="#61b1ea"] ;
55 -> 56 ;
57 [label="Feature1 <= 0.003\ngini = 0.142\nsamples = 26\nvalue = [2, 24]", fillcolor="#49a5e7"] ;
56 -> 57 ;
58 [label="gini = 0.0\nsamples = 1\nvalue = [1, 0]", fillcolor="#e58139"] ;
57 -> 58 ;
59 [label="gini = 0.077\nsamples = 25\nvalue = [1, 24]", fillcolor="#41a1e6"] ;
57 -> 59 ;
60 [label="Feature2 <= 7.5\ngini = 0.375\nsamples = 4\nvalue = [3, 1]", fillcolor="#eeab7b"] ;
56 -> 60 ;
61 [label="gini = 0.0\nsamples = 1\nvalue = [0, 1]", fillcolor="#399de5"] ;
60 -> 61 ;
62 [label="gini = 0.0\nsamples = 3\nvalue = [3, 0]", fillcolor="#e58139"] ;
60 -> 62 ;
63 [label="Feature5 <= 0.005\ngini = 0.483\nsamples = 59\nvalue = [24, 35]", fillcolor="#c1e0f7"] ;
55 -> 63 ;
64 [label="rob <= 0.434\ngini = 0.465\nsamples = 19\nvalue = [12, 7]", fillcolor="#f4caac"] ;
63 -> 64 ;
65 [label="mrt <= 0.17\ngini = 0.32\nsamples = 15\nvalue = [12, 3]", fillcolor="#eca06a"] ;
64 -> 65 ;
66 [label="rob <= 0.138\ngini = 0.375\nsamples = 4\nvalue = [1, 3]", fillcolor="#7bbeee"] ;
65 -> 66 ;
67 [label="gini = 0.0\nsamples = 1\nvalue = [1, 0]", fillcolor="#e58139"] ;
66 -> 67 ;
68 [label="gini = 0.0\nsamples = 3\nvalue = [0, 3]", fillcolor="#399de5"] ;
66 -> 68 ;
69 [label="gini = 0.0\nsamples = 11\nvalue = [11, 0]", fillcolor="#e58139"] ;
65 -> 69 ;
70 [label="gini = 0.0\nsamples = 4\nvalue = [0, 4]", fillcolor="#399de5"] ;
64 -> 70 ;
71 [label="Feature4 <= 0.071\ngini = 0.42\nsamples = 40\nvalue = [12, 28]", fillcolor="#8ec7f0"] ;
63 -> 71 ;
72 [label="gini = 0.0\nsamples = 3\nvalue = [3, 0]", fillcolor="#e58139"] ;
71 -> 72 ;
73 [label="rob <= 0.435\ngini = 0.368\nsamples = 37\nvalue = [9, 28]", fillcolor="#79bced"] ;
71 -> 73 ;
74 [label="school <= 0.226\ngini = 0.245\nsamples = 28\nvalue = [4, 24]", fillcolor="#5aade9"] ;
73 -> 74 ;
75 [label="gini = 0.0\nsamples = 1\nvalue = [1, 0]", fillcolor="#e58139"] ;
74 -> 75 ;
76 [label="Feature4 <= 0.103\ngini = 0.198\nsamples = 27\nvalue = [3, 24]", fillcolor="#52a9e8"] ;
74 -> 76 ;
77 [label="gini = 0.091\nsamples = 21\nvalue = [1, 20]", fillcolor="#43a2e6"] ;
76 -> 77 ;
78 [label="Feature4 <= 0.113\ngini = 0.444\nsamples = 6\nvalue = [2, 4]", fillcolor="#9ccef2"] ;
76 -> 78 ;
79 [label="gini = 0.0\nsamples = 2\nvalue = [2, 0]", fillcolor="#e58139"] ;
78 -> 79 ;
80 [label="gini = 0.0\nsamples = 4\nvalue = [0, 4]", fillcolor="#399de5"] ;
78 -> 80 ;
81 [label="robbery <= 7.5\ngini = 0.494\nsamples = 9\nvalue = [5, 4]", fillcolor="#fae6d7"] ;
73 -> 81 ;
82 [label="gini = 0.0\nsamples = 4\nvalue = [0, 4]", fillcolor="#399de5"] ;
81 -> 82 ;
83 [label="gini = 0.0\nsamples = 5\nvalue = [5, 0]", fillcolor="#e58139"] ;
81 -> 83 ;
84 [label="gini = 0.0\nsamples = 7\nvalue = [7, 0]", fillcolor="#e58139"] ;
44 -> 84 ;
85 [label="park <= 0.33\ngini = 0.49\nsamples = 224\nvalue = [128, 96]", fillcolor="#f8e0ce"] ;
39 -> 85 ;
86 [label="rob <= 0.27\ngini = 0.498\nsamples = 178\nvalue = [94, 84]", fillcolor="#fcf2ea"] ;
85 -> 86 ;
87 [label="Feature4 <= 0.199\ngini = 0.42\nsamples = 60\nvalue = [42, 18]", fillcolor="#f0b78e"] ;
86 -> 87 ;
88 [label="Feature1 <= 0.006\ngini = 0.38\nsamples = 55\nvalue = [41, 14]", fillcolor="#eeac7d"] ;
87 -> 88 ;
89 [label="Feature6 <= 2596.401\ngini = 0.408\nsamples = 7\nvalue = [2, 5]", fillcolor="#88c4ef"] ;
88 -> 89 ;
90 [label="gini = 0.0\nsamples = 1\nvalue = [1, 0]", fillcolor="#e58139"] ;
89 -> 90 ;
91 [label="Feature4 <= 0.059\ngini = 0.278\nsamples = 6\nvalue = [1, 5]", fillcolor="#61b1ea"] ;
89 -> 91 ;
92 [label="gini = 0.0\nsamples = 1\nvalue = [1, 0]", fillcolor="#e58139"] ;
91 -> 92 ;
93 [label="gini = 0.0\nsamples = 5\nvalue = [0, 5]", fillcolor="#399de5"] ;
91 -> 93 ;
94 [label="urban_proj <= 1126.715\ngini = 0.305\nsamples = 48\nvalue = [39, 9]", fillcolor="#eb9e67"] ;
88 -> 94 ;
95 [label="school <= 0.207\ngini = 0.263\nsamples = 45\nvalue = [38, 7]", fillcolor="#ea985d"] ;
94 -> 95 ;
96 [label="gini = 0.0\nsamples = 20\nvalue = [20, 0]", fillcolor="#e58139"] ;
95 -> 96 ;
97 [label="Feature4 <= 0.141\ngini = 0.403\nsamples = 25\nvalue = [18, 7]", fillcolor="#efb286"] ;
95 -> 97 ;
98 [label="rob <= 0.249\ngini = 0.444\nsamples = 9\nvalue = [3, 6]", fillcolor="#9ccef2"] ;
97 -> 98 ;
99 [label="Feature1 <= 0.009\ngini = 0.245\nsamples = 7\nvalue = [1, 6]", fillcolor="#5aade9"] ;
98 -> 99 ;
100 [label="gini = 0.0\nsamples = 1\nvalue = [1, 0]", fillcolor="#e58139"] ;
99 -> 100 ;
101 [label="gini = 0.0\nsamples = 6\nvalue = [0, 6]", fillcolor="#399de5"] ;
99 -> 101 ;
102 [label="gini = 0.0\nsamples = 2\nvalue = [2, 0]", fillcolor="#e58139"] ;
98 -> 102 ;
103 [label="school <= 0.215\ngini = 0.117\nsamples = 16\nvalue = [15, 1]", fillcolor="#e78946"] ;
97 -> 103 ;
104 [label="gini = 0.0\nsamples = 1\nvalue = [0, 1]", fillcolor="#399de5"] ;
103 -> 104 ;
105 [label="gini = 0.0\nsamples = 15\nvalue = [15, 0]", fillcolor="#e58139"] ;
103 -> 105 ;
106 [label="Feature2 <= 7.5\ngini = 0.444\nsamples = 3\nvalue = [1, 2]", fillcolor="#9ccef2"] ;
94 -> 106 ;
107 [label="gini = 0.0\nsamples = 1\nvalue = [1, 0]", fillcolor="#e58139"] ;
106 -> 107 ;
108 [label="gini = 0.0\nsamples = 2\nvalue = [0, 2]", fillcolor="#399de5"] ;
106 -> 108 ;
109 [label="gini = 0.32\nsamples = 5\nvalue = [1, 4]", fillcolor="#6ab6ec"] ;
87 -> 109 ;
110 [label="school <= 0.357\ngini = 0.493\nsamples = 118\nvalue = [52, 66]", fillcolor="#d5eaf9"] ;
86 -> 110 ;
111 [label="Feature1 <= 0.017\ngini = 0.452\nsamples = 90\nvalue = [31, 59]", fillcolor="#a1d0f3"] ;
110 -> 111 ;
112 [label="Feature1 <= 0.009\ngini = 0.492\nsamples = 32\nvalue = [18, 14]", fillcolor="#f9e3d3"] ;
111 -> 112 ;
113 [label="Feature1 <= 0.006\ngini = 0.391\nsamples = 15\nvalue = [4, 11]", fillcolor="#81c1ee"] ;
112 -> 113 ;
114 [label="Feature1 <= 0.003\ngini = 0.32\nsamples = 5\nvalue = [4, 1]", fillcolor="#eca06a"] ;
113 -> 114 ;
115 [label="gini = 0.0\nsamples = 1\nvalue = [0, 1]", fillcolor="#399de5"] ;
114 -> 115 ;
116 [label="gini = 0.0\nsamples = 4\nvalue = [4, 0]", fillcolor="#e58139"] ;
114 -> 116 ;
117 [label="gini = 0.0\nsamples = 10\nvalue = [0, 10]", fillcolor="#399de5"] ;
113 -> 117 ;
118 [label="park <= 0.108\ngini = 0.291\nsamples = 17\nvalue = [14, 3]", fillcolor="#eb9c63"] ;
112 -> 118 ;
119 [label="mrt <= 0.476\ngini = 0.48\nsamples = 5\nvalue = [2, 3]", fillcolor="#bddef6"] ;
118 -> 119 ;
120 [label="gini = 0.0\nsamples = 2\nvalue = [2, 0]", fillcolor="#e58139"] ;
119 -> 120 ;
121 [label="gini = 0.0\nsamples = 3\nvalue = [0, 3]", fillcolor="#399de5"] ;
119 -> 121 ;
122 [label="gini = 0.0\nsamples = 12\nvalue = [12, 0]", fillcolor="#e58139"] ;
118 -> 122 ;
123 [label="park <= 0.114\ngini = 0.348\nsamples = 58\nvalue = [13, 45]", fillcolor="#72b9ed"] ;
111 -> 123 ;
124 [label="gini = 0.0\nsamples = 3\nvalue = [3, 0]", fillcolor="#e58139"] ;
123 -> 124 ;
125 [label="mrt <= 0.344\ngini = 0.298\nsamples = 55\nvalue = [10, 45]", fillcolor="#65b3eb"] ;
123 -> 125 ;
126 [label="gini = 0.0\nsamples = 3\nvalue = [3, 0]", fillcolor="#e58139"] ;
125 -> 126 ;
127 [label="school <= 0.216\ngini = 0.233\nsamples = 52\nvalue = [7, 45]", fillcolor="#58ace9"] ;
125 -> 127 ;
128 [label="publand <= 2997245.25\ngini = 0.486\nsamples = 12\nvalue = [5, 7]", fillcolor="#c6e3f8"] ;
127 -> 128 ;
129 [label="gini = 0.0\nsamples = 7\nvalue = [0, 7]", fillcolor="#399de5"] ;
128 -> 129 ;
130 [label="gini = 0.0\nsamples = 5\nvalue = [5, 0]", fillcolor="#e58139"] ;
128 -> 130 ;
131 [label="Feature6 <= 4535.472\ngini = 0.095\nsamples = 40\nvalue = [2, 38]", fillcolor="#43a2e6"] ;
127 -> 131 ;
132 [label="gini = 0.0\nsamples = 33\nvalue = [0, 33]", fillcolor="#399de5"] ;
131 -> 132 ;
133 [label="Feature4 <= 0.214\ngini = 0.408\nsamples = 7\nvalue = [2, 5]", fillcolor="#88c4ef"] ;
131 -> 133 ;
134 [label="gini = 0.0\nsamples = 2\nvalue = [2, 0]", fillcolor="#e58139"] ;
133 -> 134 ;
135 [label="gini = 0.0\nsamples = 5\nvalue = [0, 5]", fillcolor="#399de5"] ;
133 -> 135 ;
136 [label="rob <= 0.312\ngini = 0.375\nsamples = 28\nvalue = [21, 7]", fillcolor="#eeab7b"] ;
110 -> 136 ;
137 [label="gini = 0.0\nsamples = 2\nvalue = [0, 2]", fillcolor="#399de5"] ;
136 -> 137 ;
138 [label="rob <= 0.526\ngini = 0.311\nsamples = 26\nvalue = [21, 5]", fillcolor="#eb9f68"] ;
136 -> 138 ;
139 [label="park <= 0.208\ngini = 0.219\nsamples = 24\nvalue = [21, 3]", fillcolor="#e99355"] ;
138 -> 139 ;
140 [label="gini = 0.0\nsamples = 16\nvalue = [16, 0]", fillcolor="#e58139"] ;
139 -> 140 ;
141 [label="Feature4 <= 0.185\ngini = 0.469\nsamples = 8\nvalue = [5, 3]", fillcolor="#f5cdb0"] ;
139 -> 141 ;
142 [label="rob <= 0.402\ngini = 0.375\nsamples = 4\nvalue = [1, 3]", fillcolor="#7bbeee"] ;
141 -> 142 ;
143 [label="gini = 0.0\nsamples = 1\nvalue = [1, 0]", fillcolor="#e58139"] ;
142 -> 143 ;
144 [label="gini = 0.0\nsamples = 3\nvalue = [0, 3]", fillcolor="#399de5"] ;
142 -> 144 ;
145 [label="gini = 0.0\nsamples = 4\nvalue = [4, 0]", fillcolor="#e58139"] ;
141 -> 145 ;
146 [label="gini = 0.0\nsamples = 2\nvalue = [0, 2]", fillcolor="#399de5"] ;
138 -> 146 ;
147 [label="rob <= 0.301\ngini = 0.386\nsamples = 46\nvalue = [34, 12]", fillcolor="#eead7f"] ;
85 -> 147 ;
148 [label="park <= 0.377\ngini = 0.375\nsamples = 12\nvalue = [3, 9]", fillcolor="#7bbeee"] ;
147 -> 148 ;
149 [label="gini = 0.0\nsamples = 3\nvalue = [3, 0]", fillcolor="#e58139"] ;
148 -> 149 ;
150 [label="gini = 0.0\nsamples = 9\nvalue = [0, 9]", fillcolor="#399de5"] ;
148 -> 150 ;
151 [label="gini = 0.161\nsamples = 34\nvalue = [31, 3]", fillcolor="#e88d4c"] ;
147 -> 151 ;
152 [label="DistanceType1_Park <= 0.5\ngini = 0.355\nsamples = 91\nvalue = [21, 70]", fillcolor="#74baed"] ;
38 -> 152 ;
153 [label="gini = 0.0\nsamples = 3\nvalue = [3, 0]", fillcolor="#e58139"] ;
152 -> 153 ;
154 [label="Feature4 <= 0.094\ngini = 0.325\nsamples = 88\nvalue = [18, 70]", fillcolor="#6cb6ec"] ;
152 -> 154 ;
155 [label="gini = 0.0\nsamples = 2\nvalue = [2, 0]", fillcolor="#e58139"] ;
154 -> 155 ;
156 [label="school <= 0.305\ngini = 0.303\nsamples = 86\nvalue = [16, 70]", fillcolor="#66b3eb"] ;
154 -> 156 ;
157 [label="gini = 0.089\nsamples = 43\nvalue = [2, 41]", fillcolor="#43a2e6"] ;
156 -> 157 ;
158 [label="Feature1 <= 0.086\ngini = 0.439\nsamples = 43\nvalue = [14, 29]", fillcolor="#99ccf2"] ;
156 -> 158 ;
159 [label="Feature4 <= 0.173\ngini = 0.499\nsamples = 27\nvalue = [14, 13]", fillcolor="#fdf6f1"] ;
158 -> 159 ;
160 [label="park <= 0.059\ngini = 0.26\nsamples = 13\nvalue = [2, 11]", fillcolor="#5dafea"] ;
159 -> 160 ;
161 [label="gini = 0.0\nsamples = 1\nvalue = [1, 0]", fillcolor="#e58139"] ;
160 -> 161 ;
162 [label="rob <= 0.486\ngini = 0.153\nsamples = 12\nvalue = [1, 11]", fillcolor="#4ba6e7"] ;
160 -> 162 ;
163 [label="gini = 0.0\nsamples = 11\nvalue = [0, 11]", fillcolor="#399de5"] ;
162 -> 163 ;
164 [label="gini = 0.0\nsamples = 1\nvalue = [1, 0]", fillcolor="#e58139"] ;
162 -> 164 ;
165 [label="rob <= 0.192\ngini = 0.245\nsamples = 14\nvalue = [12, 2]", fillcolor="#e9965a"] ;
159 -> 165 ;
166 [label="gini = 0.0\nsamples = 1\nvalue = [0, 1]", fillcolor="#399de5"] ;
165 -> 166 ;
167 [label="gini = 0.142\nsamples = 13\nvalue = [12, 1]", fillcolor="#e78c49"] ;
165 -> 167 ;
168 [label="gini = 0.0\nsamples = 16\nvalue = [0, 16]", fillcolor="#399de5"] ;
158 -> 168 ;
169 [label="mrt <= 0.423\ngini = 0.462\nsamples = 820\nvalue = [523, 297]", fillcolor="#f4c9a9"] ;
37 -> 169 ;
170 [label="school <= 0.407\ngini = 0.419\nsamples = 469\nvalue = [329, 140]", fillcolor="#f0b78d"] ;
169 -> 170 ;
171 [label="Feature1 <= 0.036\ngini = 0.446\nsamples = 379\nvalue = [252, 127]", fillcolor="#f2c09d"] ;
170 -> 171 ;
172 [label="Feature1 <= 0.016\ngini = 0.427\nsamples = 346\nvalue = [239, 107]", fillcolor="#f1b992"] ;
171 -> 172 ;
173 [label="Feature1 <= 0.006\ngini = 0.47\nsamples = 209\nvalue = [130, 79]", fillcolor="#f5ceb1"] ;
172 -> 173 ;
174 [label="rob <= 0.834\ngini = 0.357\nsamples = 86\nvalue = [66, 20]", fillcolor="#eda775"] ;
173 -> 174 ;
175 [label="urban_proj <= 1126.715\ngini = 0.469\nsamples = 16\nvalue = [6, 10]", fillcolor="#b0d8f5"] ;
174 -> 175 ;
176 [label="gini = 0.278\nsamples = 6\nvalue = [5, 1]", fillcolor="#ea9a61"] ;
175 -> 176 ;
177 [label="gini = 0.18\nsamples = 10\nvalue = [1, 9]", fillcolor="#4fa8e8"] ;
175 -> 177 ;
178 [label="mrt <= 0.115\ngini = 0.245\nsamples = 70\nvalue = [60, 10]", fillcolor="#e9965a"] ;
174 -> 178 ;
179 [label="gini = 0.0\nsamples = 1\nvalue = [0, 1]", fillcolor="#399de5"] ;
178 -> 179 ;
180 [label="park <= 0.083\ngini = 0.227\nsamples = 69\nvalue = [60, 9]", fillcolor="#e99457"] ;
178 -> 180 ;
181 [label="rob <= 2.83\ngini = 0.388\nsamples = 19\nvalue = [14, 5]", fillcolor="#eeae80"] ;
180 -> 181 ;
182 [label="MonitorType1 <= 0.5\ngini = 0.291\nsamples = 17\nvalue = [14, 3]", fillcolor="#eb9c63"] ;
181 -> 182 ;
183 [label="mrt <= 0.248\ngini = 0.219\nsamples = 16\nvalue = [14, 2]", fillcolor="#e99355"] ;
182 -> 183 ;
184 [label="Feature4 <= 0.207\ngini = 0.408\nsamples = 7\nvalue = [5, 2]", fillcolor="#efb388"] ;
183 -> 184 ;
185 [label="gini = 0.0\nsamples = 5\nvalue = [5, 0]", fillcolor="#e58139"] ;
184 -> 185 ;
186 [label="gini = 0.0\nsamples = 2\nvalue = [0, 2]", fillcolor="#399de5"] ;
184 -> 186 ;
187 [label="gini = 0.0\nsamples = 9\nvalue = [9, 0]", fillcolor="#e58139"] ;
183 -> 187 ;
188 [label="gini = 0.0\nsamples = 1\nvalue = [0, 1]", fillcolor="#399de5"] ;
182 -> 188 ;
189 [label="gini = 0.0\nsamples = 2\nvalue = [0, 2]", fillcolor="#399de5"] ;
181 -> 189 ;
190 [label="park <= 0.319\ngini = 0.147\nsamples = 50\nvalue = [46, 4]", fillcolor="#e78c4a"] ;
180 -> 190 ;
191 [label="gini = 0.087\nsamples = 44\nvalue = [42, 2]", fillcolor="#e68742"] ;
190 -> 191 ;
192 [label="school <= 0.031\ngini = 0.444\nsamples = 6\nvalue = [4, 2]", fillcolor="#f2c09c"] ;
190 -> 192 ;
193 [label="gini = 0.0\nsamples = 4\nvalue = [4, 0]", fillcolor="#e58139"] ;
192 -> 193 ;
194 [label="gini = 0.0\nsamples = 2\nvalue = [0, 2]", fillcolor="#399de5"] ;
192 -> 194 ;
195 [label="park <= 0.389\ngini = 0.499\nsamples = 123\nvalue = [64, 59]", fillcolor="#fdf5f0"] ;
173 -> 195 ;
196 [label="Feature4 <= 0.078\ngini = 0.496\nsamples = 106\nvalue = [48, 58]", fillcolor="#ddeefb"] ;
195 -> 196 ;
197 [label="gini = 0.0\nsamples = 10\nvalue = [10, 0]", fillcolor="#e58139"] ;
196 -> 197 ;
198 [label="rob <= 2.8\ngini = 0.478\nsamples = 96\nvalue = [38, 58]", fillcolor="#bbddf6"] ;
196 -> 198 ;
199 [label="mrt <= 0.231\ngini = 0.444\nsamples = 87\nvalue = [29, 58]", fillcolor="#9ccef2"] ;
198 -> 199 ;
200 [label="Feature1 <= 0.01\ngini = 0.494\nsamples = 27\nvalue = [15, 12]", fillcolor="#fae6d7"] ;
199 -> 200 ;
201 [label="rob <= 0.749\ngini = 0.444\nsamples = 18\nvalue = [6, 12]", fillcolor="#9ccef2"] ;
200 -> 201 ;
202 [label="gini = 0.0\nsamples = 2\nvalue = [2, 0]", fillcolor="#e58139"] ;
201 -> 202 ;
203 [label="park <= 0.16\ngini = 0.375\nsamples = 16\nvalue = [4, 12]", fillcolor="#7bbeee"] ;
201 -> 203 ;
204 [label="Feature1 <= 0.006\ngini = 0.444\nsamples = 3\nvalue = [2, 1]", fillcolor="#f2c09c"] ;
203 -> 204 ;
205 [label="gini = 0.0\nsamples = 1\nvalue = [0, 1]", fillcolor="#399de5"] ;
204 -> 205 ;
206 [label="gini = 0.0\nsamples = 2\nvalue = [2, 0]", fillcolor="#e58139"] ;
204 -> 206 ;
207 [label="school <= 0.15\ngini = 0.26\nsamples = 13\nvalue = [2, 11]", fillcolor="#5dafea"] ;
203 -> 207 ;
208 [label="gini = 0.0\nsamples = 1\nvalue = [1, 0]", fillcolor="#e58139"] ;
207 -> 208 ;
209 [label="gini = 0.153\nsamples = 12\nvalue = [1, 11]", fillcolor="#4ba6e7"] ;
207 -> 209 ;
210 [label="gini = 0.0\nsamples = 9\nvalue = [9, 0]", fillcolor="#e58139"] ;
200 -> 210 ;
211 [label="mrt <= 0.402\ngini = 0.358\nsamples = 60\nvalue = [14, 46]", fillcolor="#75bbed"] ;
199 -> 211 ;
212 [label="park <= 0.096\ngini = 0.298\nsamples = 55\nvalue = [10, 45]", fillcolor="#65b3eb"] ;
211 -> 212 ;
213 [label="mrt <= 0.374\ngini = 0.375\nsamples = 4\nvalue = [3, 1]", fillcolor="#eeab7b"] ;
212 -> 213 ;
214 [label="gini = 0.0\nsamples = 3\nvalue = [3, 0]", fillcolor="#e58139"] ;
213 -> 214 ;
215 [label="gini = 0.0\nsamples = 1\nvalue = [0, 1]", fillcolor="#399de5"] ;
213 -> 215 ;
216 [label="rob <= 0.822\ngini = 0.237\nsamples = 51\nvalue = [7, 44]", fillcolor="#58ade9"] ;
212 -> 216 ;
217 [label="monitor <= 1654.5\ngini = 0.415\nsamples = 17\nvalue = [5, 12]", fillcolor="#8bc6f0"] ;
216 -> 217 ;
218 [label="Feature1 <= 0.01\ngini = 0.245\nsamples = 14\nvalue = [2, 12]", fillcolor="#5aade9"] ;
217 -> 218 ;
219 [label="rob <= 0.695\ngini = 0.444\nsamples = 6\nvalue = [2, 4]", fillcolor="#9ccef2"] ;
218 -> 219 ;
220 [label="gini = 0.0\nsamples = 2\nvalue = [2, 0]", fillcolor="#e58139"] ;
219 -> 220 ;
221 [label="gini = 0.0\nsamples = 4\nvalue = [0, 4]", fillcolor="#399de5"] ;
219 -> 221 ;
222 [label="gini = 0.0\nsamples = 8\nvalue = [0, 8]", fillcolor="#399de5"] ;
218 -> 222 ;
223 [label="gini = 0.0\nsamples = 3\nvalue = [3, 0]", fillcolor="#e58139"] ;
217 -> 223 ;
224 [label="Feature4 <= 0.714\ngini = 0.111\nsamples = 34\nvalue = [2, 32]", fillcolor="#45a3e7"] ;
216 -> 224 ;
225 [label="gini = 0.0\nsamples = 25\nvalue = [0, 25]", fillcolor="#399de5"] ;
224 -> 225 ;
226 [label="school <= 0.171\ngini = 0.346\nsamples = 9\nvalue = [2, 7]", fillcolor="#72b9ec"] ;
224 -> 226 ;
227 [label="gini = 0.0\nsamples = 7\nvalue = [0, 7]", fillcolor="#399de5"] ;
226 -> 227 ;
228 [label="gini = 0.0\nsamples = 2\nvalue = [2, 0]", fillcolor="#e58139"] ;
226 -> 228 ;
229 [label="Feature1 <= 0.008\ngini = 0.32\nsamples = 5\nvalue = [4, 1]", fillcolor="#eca06a"] ;
211 -> 229 ;
230 [label="gini = 0.0\nsamples = 1\nvalue = [0, 1]", fillcolor="#399de5"] ;
229 -> 230 ;
231 [label="gini = 0.0\nsamples = 4\nvalue = [4, 0]", fillcolor="#e58139"] ;
229 -> 231 ;
232 [label="gini = 0.0\nsamples = 9\nvalue = [9, 0]", fillcolor="#e58139"] ;
198 -> 232 ;
233 [label="gini = 0.111\nsamples = 17\nvalue = [16, 1]", fillcolor="#e78945"] ;
195 -> 233 ;
234 [label="mrt <= 0.284\ngini = 0.325\nsamples = 137\nvalue = [109, 28]", fillcolor="#eca16c"] ;
172 -> 234 ;
235 [label="rob <= 1.207\ngini = 0.441\nsamples = 70\nvalue = [47, 23]", fillcolor="#f2bf9a"] ;
234 -> 235 ;
236 [label="school <= 0.229\ngini = 0.302\nsamples = 54\nvalue = [44, 10]", fillcolor="#eb9e66"] ;
235 -> 236 ;
237 [label="rob <= 0.833\ngini = 0.496\nsamples = 11\nvalue = [6, 5]", fillcolor="#fbeade"] ;
236 -> 237 ;
238 [label="gini = 0.0\nsamples = 5\nvalue = [5, 0]", fillcolor="#e58139"] ;
237 -> 238 ;
239 [label="Feature4 <= 0.191\ngini = 0.278\nsamples = 6\nvalue = [1, 5]", fillcolor="#61b1ea"] ;
237 -> 239 ;
240 [label="gini = 0.0\nsamples = 5\nvalue = [0, 5]", fillcolor="#399de5"] ;
239 -> 240 ;
241 [label="gini = 0.0\nsamples = 1\nvalue = [1, 0]", fillcolor="#e58139"] ;
239 -> 241 ;
242 [label="rob <= 0.732\ngini = 0.206\nsamples = 43\nvalue = [38, 5]", fillcolor="#e89253"] ;
236 -> 242 ;
243 [label="mrt <= 0.257\ngini = 0.486\nsamples = 12\nvalue = [7, 5]", fillcolor="#f8dbc6"] ;
242 -> 243 ;
244 [label="mrt <= 0.167\ngini = 0.278\nsamples = 6\nvalue = [1, 5]", fillcolor="#61b1ea"] ;
243 -> 244 ;
245 [label="gini = 0.0\nsamples = 1\nvalue = [1, 0]", fillcolor="#e58139"] ;
244 -> 245 ;
246 [label="gini = 0.0\nsamples = 5\nvalue = [0, 5]", fillcolor="#399de5"] ;
244 -> 246 ;
247 [label="gini = 0.0\nsamples = 6\nvalue = [6, 0]", fillcolor="#e58139"] ;
243 -> 247 ;
248 [label="gini = 0.0\nsamples = 31\nvalue = [31, 0]", fillcolor="#e58139"] ;
242 -> 248 ;
249 [label="Feature4 <= 0.923\ngini = 0.305\nsamples = 16\nvalue = [3, 13]", fillcolor="#67b4eb"] ;
235 -> 249 ;
250 [label="school <= 0.241\ngini = 0.133\nsamples = 14\nvalue = [1, 13]", fillcolor="#48a5e7"] ;
249 -> 250 ;
251 [label="gini = 0.0\nsamples = 1\nvalue = [1, 0]", fillcolor="#e58139"] ;
250 -> 251 ;
252 [label="gini = 0.0\nsamples = 13\nvalue = [0, 13]", fillcolor="#399de5"] ;
250 -> 252 ;
253 [label="gini = 0.0\nsamples = 2\nvalue = [2, 0]", fillcolor="#e58139"] ;
249 -> 253 ;
254 [label="DistanceType1_Park <= 0.5\ngini = 0.138\nsamples = 67\nvalue = [62, 5]", fillcolor="#e78b49"] ;
234 -> 254 ;
255 [label="gini = 0.0\nsamples = 1\nvalue = [0, 1]", fillcolor="#399de5"] ;
254 -> 255 ;
256 [label="park <= 0.157\ngini = 0.114\nsamples = 66\nvalue = [62, 4]", fillcolor="#e78946"] ;
254 -> 256 ;
257 [label="gini = 0.0\nsamples = 1\nvalue = [0, 1]", fillcolor="#399de5"] ;
256 -> 257 ;
258 [label="gini = 0.088\nsamples = 65\nvalue = [62, 3]", fillcolor="#e68743"] ;
256 -> 258 ;
259 [label="Feature4 <= 0.233\ngini = 0.478\nsamples = 33\nvalue = [13, 20]", fillcolor="#baddf6"] ;
171 -> 259 ;
260 [label="Feature4 <= 0.173\ngini = 0.208\nsamples = 17\nvalue = [2, 15]", fillcolor="#53aae8"] ;
259 -> 260 ;
261 [label="gini = 0.0\nsamples = 1\nvalue = [1, 0]", fillcolor="#e58139"] ;
260 -> 261 ;
262 [label="gini = 0.117\nsamples = 16\nvalue = [1, 15]", fillcolor="#46a4e7"] ;
260 -> 262 ;
263 [label="school <= 0.376\ngini = 0.43\nsamples = 16\nvalue = [11, 5]", fillcolor="#f1ba93"] ;
259 -> 263 ;
264 [label="rob <= 0.763\ngini = 0.26\nsamples = 13\nvalue = [11, 2]", fillcolor="#ea985d"] ;
263 -> 264 ;
265 [label="gini = 0.0\nsamples = 1\nvalue = [0, 1]", fillcolor="#399de5"] ;
264 -> 265 ;
266 [label="Feature1 <= 0.041\ngini = 0.153\nsamples = 12\nvalue = [11, 1]", fillcolor="#e78c4b"] ;
264 -> 266 ;
267 [label="gini = 0.0\nsamples = 1\nvalue = [0, 1]", fillcolor="#399de5"] ;
266 -> 267 ;
268 [label="gini = 0.0\nsamples = 11\nvalue = [11, 0]", fillcolor="#e58139"] ;
266 -> 268 ;
269 [label="gini = 0.0\nsamples = 3\nvalue = [0, 3]", fillcolor="#399de5"] ;
263 -> 269 ;
270 [label="school <= 0.698\ngini = 0.247\nsamples = 90\nvalue = [77, 13]", fillcolor="#e9965a"] ;
170 -> 270 ;
271 [label="park <= 0.116\ngini = 0.203\nsamples = 87\nvalue = [77, 10]", fillcolor="#e89153"] ;
270 -> 271 ;
272 [label="rob <= 0.845\ngini = 0.432\nsamples = 19\nvalue = [13, 6]", fillcolor="#f1bb94"] ;
271 -> 272 ;
273 [label="gini = 0.0\nsamples = 4\nvalue = [0, 4]", fillcolor="#399de5"] ;
272 -> 273 ;
274 [label="park <= 0.088\ngini = 0.231\nsamples = 15\nvalue = [13, 2]", fillcolor="#e99457"] ;
272 -> 274 ;
275 [label="gini = 0.0\nsamples = 12\nvalue = [12, 0]", fillcolor="#e58139"] ;
274 -> 275 ;
276 [label="gini = 0.444\nsamples = 3\nvalue = [1, 2]", fillcolor="#9ccef2"] ;
274 -> 276 ;
277 [label="rob <= 1.01\ngini = 0.111\nsamples = 68\nvalue = [64, 4]", fillcolor="#e78945"] ;
271 -> 277 ;
278 [label="gini = 0.062\nsamples = 62\nvalue = [60, 2]", fillcolor="#e68540"] ;
277 -> 278 ;
279 [label="school <= 0.485\ngini = 0.444\nsamples = 6\nvalue = [4, 2]", fillcolor="#f2c09c"] ;
277 -> 279 ;
280 [label="gini = 0.0\nsamples = 4\nvalue = [4, 0]", fillcolor="#e58139"] ;
279 -> 280 ;
281 [label="gini = 0.0\nsamples = 2\nvalue = [0, 2]", fillcolor="#399de5"] ;
279 -> 281 ;
282 [label="gini = 0.0\nsamples = 3\nvalue = [0, 3]", fillcolor="#399de5"] ;
270 -> 282 ;
283 [label="rob <= 0.863\ngini = 0.494\nsamples = 351\nvalue = [194, 157]", fillcolor="#fae7d9"] ;
169 -> 283 ;
284 [label="mrt <= 0.731\ngini = 0.472\nsamples = 102\nvalue = [39, 63]", fillcolor="#b4daf5"] ;
283 -> 284 ;
285 [label="Feature7 <= 21.644\ngini = 0.431\nsamples = 89\nvalue = [28, 61]", fillcolor="#94caf1"] ;
284 -> 285 ;
286 [label="Feature1 <= 0.023\ngini = 0.372\nsamples = 77\nvalue = [19, 58]", fillcolor="#7abdee"] ;
285 -> 286 ;
287 [label="Feature1 <= 0.014\ngini = 0.491\nsamples = 37\nvalue = [16, 21]", fillcolor="#d0e8f9"] ;
286 -> 287 ;
288 [label="publand <= 3553216.875\ngini = 0.355\nsamples = 26\nvalue = [6, 20]", fillcolor="#74baed"] ;
287 -> 288 ;
289 [label="gini = 0.111\nsamples = 17\nvalue = [1, 16]", fillcolor="#45a3e7"] ;
288 -> 289 ;
290 [label="Feature1 <= 0.011\ngini = 0.494\nsamples = 9\nvalue = [5, 4]", fillcolor="#fae6d7"] ;
288 -> 290 ;
291 [label="gini = 0.0\nsamples = 4\nvalue = [4, 0]", fillcolor="#e58139"] ;
290 -> 291 ;
292 [label="DistanceType2_School <= 0.5\ngini = 0.32\nsamples = 5\nvalue = [1, 4]", fillcolor="#6ab6ec"] ;
290 -> 292 ;
293 [label="gini = 0.0\nsamples = 1\nvalue = [1, 0]", fillcolor="#e58139"] ;
292 -> 293 ;
294 [label="gini = 0.0\nsamples = 4\nvalue = [0, 4]", fillcolor="#399de5"] ;
292 -> 294 ;
295 [label="school <= 0.246\ngini = 0.165\nsamples = 11\nvalue = [10, 1]", fillcolor="#e88e4d"] ;
287 -> 295 ;
296 [label="gini = 0.0\nsamples = 10\nvalue = [10, 0]", fillcolor="#e58139"] ;
295 -> 296 ;
297 [label="gini = 0.0\nsamples = 1\nvalue = [0, 1]", fillcolor="#399de5"] ;
295 -> 297 ;
298 [label="rob <= 0.574\ngini = 0.139\nsamples = 40\nvalue = [3, 37]", fillcolor="#49a5e7"] ;
286 -> 298 ;
299 [label="gini = 0.0\nsamples = 1\nvalue = [1, 0]", fillcolor="#e58139"] ;
298 -> 299 ;
300 [label="gini = 0.097\nsamples = 39\nvalue = [2, 37]", fillcolor="#44a2e6"] ;
298 -> 300 ;
301 [label="school <= 0.318\ngini = 0.375\nsamples = 12\nvalue = [9, 3]", fillcolor="#eeab7b"] ;
285 -> 301 ;
302 [label="gini = 0.0\nsamples = 7\nvalue = [7, 0]", fillcolor="#e58139"] ;
301 -> 302 ;
303 [label="rob <= 0.831\ngini = 0.48\nsamples = 5\nvalue = [2, 3]", fillcolor="#bddef6"] ;
301 -> 303 ;
304 [label="gini = 0.0\nsamples = 3\nvalue = [0, 3]", fillcolor="#399de5"] ;
303 -> 304 ;
305 [label="gini = 0.0\nsamples = 2\nvalue = [2, 0]", fillcolor="#e58139"] ;
303 -> 305 ;
306 [label="Feature1 <= 0.091\ngini = 0.26\nsamples = 13\nvalue = [11, 2]", fillcolor="#ea985d"] ;
284 -> 306 ;
307 [label="gini = 0.0\nsamples = 2\nvalue = [0, 2]", fillcolor="#399de5"] ;
306 -> 307 ;
308 [label="gini = 0.0\nsamples = 11\nvalue = [11, 0]", fillcolor="#e58139"] ;
306 -> 308 ;
309 [label="Feature4 <= 0.21\ngini = 0.47\nsamples = 249\nvalue = [155, 94]", fillcolor="#f5cdb1"] ;
283 -> 309 ;
310 [label="Feature4 <= 0.163\ngini = 0.236\nsamples = 73\nvalue = [63, 10]", fillcolor="#e99558"] ;
309 -> 310 ;
311 [label="mrt <= 0.512\ngini = 0.498\nsamples = 17\nvalue = [9, 8]", fillcolor="#fcf1e9"] ;
310 -> 311 ;
312 [label="Feature4 <= 0.162\ngini = 0.198\nsamples = 9\nvalue = [8, 1]", fillcolor="#e89152"] ;
311 -> 312 ;
313 [label="gini = 0.0\nsamples = 8\nvalue = [8, 0]", fillcolor="#e58139"] ;
312 -> 313 ;
314 [label="gini = 0.0\nsamples = 1\nvalue = [0, 1]", fillcolor="#399de5"] ;
312 -> 314 ;
315 [label="park <= 0.066\ngini = 0.219\nsamples = 8\nvalue = [1, 7]", fillcolor="#55abe9"] ;
311 -> 315 ;
316 [label="gini = 0.0\nsamples = 1\nvalue = [1, 0]", fillcolor="#e58139"] ;
315 -> 316 ;
317 [label="gini = 0.0\nsamples = 7\nvalue = [0, 7]", fillcolor="#399de5"] ;
315 -> 317 ;
318 [label="park <= 0.057\ngini = 0.069\nsamples = 56\nvalue = [54, 2]", fillcolor="#e68640"] ;
310 -> 318 ;
319 [label="gini = 0.0\nsamples = 1\nvalue = [0, 1]", fillcolor="#399de5"] ;
318 -> 319 ;
320 [label="gini = 0.036\nsamples = 55\nvalue = [54, 1]", fillcolor="#e5833d"] ;
318 -> 320 ;
321 [label="school <= 0.314\ngini = 0.499\nsamples = 176\nvalue = [92, 84]", fillcolor="#fdf4ee"] ;
309 -> 321 ;
322 [label="mrt <= 0.57\ngini = 0.475\nsamples = 111\nvalue = [43, 68]", fillcolor="#b6dbf5"] ;
321 -> 322 ;
323 [label="park <= 0.249\ngini = 0.265\nsamples = 51\nvalue = [8, 43]", fillcolor="#5eafea"] ;
322 -> 323 ;
324 [label="rob <= 1.485\ngini = 0.492\nsamples = 16\nvalue = [7, 9]", fillcolor="#d3e9f9"] ;
323 -> 324 ;
325 [label="gini = 0.0\nsamples = 4\nvalue = [4, 0]", fillcolor="#e58139"] ;
324 -> 325 ;
326 [label="park <= 0.08\ngini = 0.375\nsamples = 12\nvalue = [3, 9]", fillcolor="#7bbeee"] ;
324 -> 326 ;
327 [label="gini = 0.0\nsamples = 2\nvalue = [2, 0]", fillcolor="#e58139"] ;
326 -> 327 ;
328 [label="mrt <= 0.426\ngini = 0.18\nsamples = 10\nvalue = [1, 9]", fillcolor="#4fa8e8"] ;
326 -> 328 ;
329 [label="gini = 0.0\nsamples = 1\nvalue = [1, 0]", fillcolor="#e58139"] ;
328 -> 329 ;
330 [label="gini = 0.0\nsamples = 9\nvalue = [0, 9]", fillcolor="#399de5"] ;
328 -> 330 ;
331 [label="gini = 0.056\nsamples = 35\nvalue = [1, 34]", fillcolor="#3fa0e6"] ;
323 -> 331 ;
332 [label="rob <= 1.768\ngini = 0.486\nsamples = 60\nvalue = [35, 25]", fillcolor="#f8dbc6"] ;
322 -> 332 ;
333 [label="rob <= 0.923\ngini = 0.32\nsamples = 25\nvalue = [20, 5]", fillcolor="#eca06a"] ;
332 -> 333 ;
334 [label="Feature1 <= 0.107\ngini = 0.32\nsamples = 5\nvalue = [1, 4]", fillcolor="#6ab6ec"] ;
333 -> 334 ;
335 [label="gini = 0.0\nsamples = 4\nvalue = [0, 4]", fillcolor="#399de5"] ;
334 -> 335 ;
336 [label="gini = 0.0\nsamples = 1\nvalue = [1, 0]", fillcolor="#e58139"] ;
334 -> 336 ;
337 [label="gini = 0.095\nsamples = 20\nvalue = [19, 1]", fillcolor="#e68843"] ;
333 -> 337 ;
338 [label="school <= 0.23\ngini = 0.49\nsamples = 35\nvalue = [15, 20]", fillcolor="#cee6f8"] ;
332 -> 338 ;
339 [label="mrt <= 0.773\ngini = 0.48\nsamples = 20\nvalue = [12, 8]", fillcolor="#f6d5bd"] ;
338 -> 339 ;
340 [label="school <= 0.06\ngini = 0.415\nsamples = 17\nvalue = [12, 5]", fillcolor="#f0b58b"] ;
339 -> 340 ;
341 [label="gini = 0.0\nsamples = 2\nvalue = [0, 2]", fillcolor="#399de5"] ;
340 -> 341 ;
342 [label="Feature4 <= 1.016\ngini = 0.32\nsamples = 15\nvalue = [12, 3]", fillcolor="#eca06a"] ;
340 -> 342 ;
343 [label="Feature4 <= 0.904\ngini = 0.469\nsamples = 8\nvalue = [5, 3]", fillcolor="#f5cdb0"] ;
342 -> 343 ;
344 [label="gini = 0.0\nsamples = 5\nvalue = [5, 0]", fillcolor="#e58139"] ;
343 -> 344 ;
345 [label="gini = 0.0\nsamples = 3\nvalue = [0, 3]", fillcolor="#399de5"] ;
343 -> 345 ;
346 [label="gini = 0.0\nsamples = 7\nvalue = [7, 0]", fillcolor="#e58139"] ;
342 -> 346 ;
347 [label="gini = 0.0\nsamples = 3\nvalue = [0, 3]", fillcolor="#399de5"] ;
339 -> 347 ;
348 [label="park <= 0.271\ngini = 0.32\nsamples = 15\nvalue = [3, 12]", fillcolor="#6ab6ec"] ;
338 -> 348 ;
349 [label="gini = 0.0\nsamples = 9\nvalue = [0, 9]", fillcolor="#399de5"] ;
348 -> 349 ;
350 [label="school <= 0.268\ngini = 0.5\nsamples = 6\nvalue = [3, 3]", fillcolor="#ffffff"] ;
348 -> 350 ;
351 [label="gini = 0.0\nsamples = 2\nvalue = [2, 0]", fillcolor="#e58139"] ;
350 -> 351 ;
352 [label="rob <= 2.168\ngini = 0.375\nsamples = 4\nvalue = [1, 3]", fillcolor="#7bbeee"] ;
350 -> 352 ;
353 [label="gini = 0.0\nsamples = 1\nvalue = [1, 0]", fillcolor="#e58139"] ;
352 -> 353 ;
354 [label="gini = 0.0\nsamples = 3\nvalue = [0, 3]", fillcolor="#399de5"] ;
352 -> 354 ;
355 [label="Feature4 <= 1.387\ngini = 0.371\nsamples = 65\nvalue = [49, 16]", fillcolor="#edaa7a"] ;
321 -> 355 ;
356 [label="Feature4 <= 0.254\ngini = 0.241\nsamples = 57\nvalue = [49, 8]", fillcolor="#e99659"] ;
355 -> 356 ;
357 [label="rob <= 1.107\ngini = 0.494\nsamples = 18\nvalue = [10, 8]", fillcolor="#fae6d7"] ;
356 -> 357 ;
358 [label="park <= 0.132\ngini = 0.198\nsamples = 9\nvalue = [8, 1]", fillcolor="#e89152"] ;
357 -> 358 ;
359 [label="gini = 0.0\nsamples = 1\nvalue = [0, 1]", fillcolor="#399de5"] ;
358 -> 359 ;
360 [label="gini = 0.0\nsamples = 8\nvalue = [8, 0]", fillcolor="#e58139"] ;
358 -> 360 ;
361 [label="rob <= 3.587\ngini = 0.346\nsamples = 9\nvalue = [2, 7]", fillcolor="#72b9ec"] ;
357 -> 361 ;
362 [label="gini = 0.0\nsamples = 7\nvalue = [0, 7]", fillcolor="#399de5"] ;
361 -> 362 ;
363 [label="gini = 0.0\nsamples = 2\nvalue = [2, 0]", fillcolor="#e58139"] ;
361 -> 363 ;
364 [label="gini = 0.0\nsamples = 39\nvalue = [39, 0]", fillcolor="#e58139"] ;
356 -> 364 ;
365 [label="gini = 0.0\nsamples = 8\nvalue = [0, 8]", fillcolor="#399de5"] ;
355 -> 365 ;
366 [label="school <= 0.549\ngini = 0.435\nsamples = 307\nvalue = [98, 209]", fillcolor="#96cbf1"] ;
2 -> 366 ;
367 [label="Feature4 <= 0.179\ngini = 0.409\nsamples = 289\nvalue = [83, 206]", fillcolor="#89c4ef"] ;
366 -> 367 ;
368 [label="rob <= 1.049\ngini = 0.497\nsamples = 87\nvalue = [40, 47]", fillcolor="#e2f0fb"] ;
367 -> 368 ;
369 [label="park <= 0.413\ngini = 0.305\nsamples = 48\nvalue = [9, 39]", fillcolor="#67b4eb"] ;
368 -> 369 ;
370 [label="rob <= 0.148\ngini = 0.139\nsamples = 40\nvalue = [3, 37]", fillcolor="#49a5e7"] ;
369 -> 370 ;
371 [label="gini = 0.0\nsamples = 2\nvalue = [2, 0]", fillcolor="#e58139"] ;
370 -> 371 ;
372 [label="gini = 0.051\nsamples = 38\nvalue = [1, 37]", fillcolor="#3ea0e6"] ;
370 -> 372 ;
373 [label="rob <= 0.578\ngini = 0.375\nsamples = 8\nvalue = [6, 2]", fillcolor="#eeab7b"] ;
369 -> 373 ;
374 [label="gini = 0.0\nsamples = 1\nvalue = [0, 1]", fillcolor="#399de5"] ;
373 -> 374 ;
375 [label="mrt <= 1.16\ngini = 0.245\nsamples = 7\nvalue = [6, 1]", fillcolor="#e9965a"] ;
373 -> 375 ;
376 [label="gini = 0.0\nsamples = 6\nvalue = [6, 0]", fillcolor="#e58139"] ;
375 -> 376 ;
377 [label="gini = 0.0\nsamples = 1\nvalue = [0, 1]", fillcolor="#399de5"] ;
375 -> 377 ;
378 [label="Feature1 <= 0.037\ngini = 0.326\nsamples = 39\nvalue = [31, 8]", fillcolor="#eca26c"] ;
368 -> 378 ;
379 [label="Feature1 <= 0.031\ngini = 0.498\nsamples = 15\nvalue = [7, 8]", fillcolor="#e6f3fc"] ;
378 -> 379 ;
380 [label="rob <= 1.305\ngini = 0.219\nsamples = 8\nvalue = [7, 1]", fillcolor="#e99355"] ;
379 -> 380 ;
381 [label="gini = 0.0\nsamples = 7\nvalue = [7, 0]", fillcolor="#e58139"] ;
380 -> 381 ;
382 [label="gini = 0.0\nsamples = 1\nvalue = [0, 1]", fillcolor="#399de5"] ;
380 -> 382 ;
383 [label="gini = 0.0\nsamples = 7\nvalue = [0, 7]", fillcolor="#399de5"] ;
379 -> 383 ;
384 [label="gini = 0.0\nsamples = 24\nvalue = [24, 0]", fillcolor="#e58139"] ;
378 -> 384 ;
385 [label="park <= 0.393\ngini = 0.335\nsamples = 202\nvalue = [43, 159]", fillcolor="#6fb8ec"] ;
367 -> 385 ;
386 [label="park <= 0.144\ngini = 0.235\nsamples = 125\nvalue = [17, 108]", fillcolor="#58ace9"] ;
385 -> 386 ;
387 [label="Feature1 <= 0.027\ngini = 0.463\nsamples = 22\nvalue = [8, 14]", fillcolor="#aad5f4"] ;
386 -> 387 ;
388 [label="Feature1 <= 0.007\ngini = 0.32\nsamples = 15\nvalue = [3, 12]", fillcolor="#6ab6ec"] ;
387 -> 388 ;
389 [label="gini = 0.0\nsamples = 2\nvalue = [2, 0]", fillcolor="#e58139"] ;
388 -> 389 ;
390 [label="mrt <= 0.828\ngini = 0.142\nsamples = 13\nvalue = [1, 12]", fillcolor="#49a5e7"] ;
388 -> 390 ;
391 [label="gini = 0.0\nsamples = 1\nvalue = [1, 0]", fillcolor="#e58139"] ;
390 -> 391 ;
392 [label="gini = 0.0\nsamples = 12\nvalue = [0, 12]", fillcolor="#399de5"] ;
390 -> 392 ;
393 [label="Feature4 <= 0.32\ngini = 0.408\nsamples = 7\nvalue = [5, 2]", fillcolor="#efb388"] ;
387 -> 393 ;
394 [label="gini = 0.0\nsamples = 2\nvalue = [0, 2]", fillcolor="#399de5"] ;
393 -> 394 ;
395 [label="gini = 0.0\nsamples = 5\nvalue = [5, 0]", fillcolor="#e58139"] ;
393 -> 395 ;
396 [label="rob <= 3.447\ngini = 0.159\nsamples = 103\nvalue = [9, 94]", fillcolor="#4ca6e7"] ;
386 -> 396 ;
397 [label="school <= 0.393\ngini = 0.145\nsamples = 102\nvalue = [8, 94]", fillcolor="#4aa5e7"] ;
396 -> 397 ;
398 [label="mrt <= 0.842\ngini = 0.101\nsamples = 94\nvalue = [5, 89]", fillcolor="#44a3e6"] ;
397 -> 398 ;
399 [label="park <= 0.215\ngini = 0.355\nsamples = 13\nvalue = [3, 10]", fillcolor="#74baed"] ;
398 -> 399 ;
400 [label="gini = 0.0\nsamples = 2\nvalue = [2, 0]", fillcolor="#e58139"] ;
399 -> 400 ;
401 [label="Feature4 <= 0.275\ngini = 0.165\nsamples = 11\nvalue = [1, 10]", fillcolor="#4da7e8"] ;
399 -> 401 ;
402 [label="gini = 0.0\nsamples = 1\nvalue = [1, 0]", fillcolor="#e58139"] ;
401 -> 402 ;
403 [label="gini = 0.0\nsamples = 10\nvalue = [0, 10]", fillcolor="#399de5"] ;
401 -> 403 ;
404 [label="gini = 0.048\nsamples = 81\nvalue = [2, 79]", fillcolor="#3e9fe6"] ;
398 -> 404 ;
405 [label="Feature2 <= 5.5\ngini = 0.469\nsamples = 8\nvalue = [3, 5]", fillcolor="#b0d8f5"] ;
397 -> 405 ;
406 [label="gini = 0.0\nsamples = 3\nvalue = [3, 0]", fillcolor="#e58139"] ;
405 -> 406 ;
407 [label="gini = 0.0\nsamples = 5\nvalue = [0, 5]", fillcolor="#399de5"] ;
405 -> 407 ;
408 [label="gini = 0.0\nsamples = 1\nvalue = [1, 0]", fillcolor="#e58139"] ;
396 -> 408 ;
409 [label="park <= 0.476\ngini = 0.447\nsamples = 77\nvalue = [26, 51]", fillcolor="#9ecff2"] ;
385 -> 409 ;
410 [label="Feature4 <= 0.247\ngini = 0.408\nsamples = 14\nvalue = [10, 4]", fillcolor="#efb388"] ;
409 -> 410 ;
411 [label="mrt <= 1.516\ngini = 0.375\nsamples = 4\nvalue = [1, 3]", fillcolor="#7bbeee"] ;
410 -> 411 ;
412 [label="gini = 0.0\nsamples = 1\nvalue = [1, 0]", fillcolor="#e58139"] ;
411 -> 412 ;
413 [label="gini = 0.0\nsamples = 3\nvalue = [0, 3]", fillcolor="#399de5"] ;
411 -> 413 ;
414 [label="mrt <= 0.84\ngini = 0.18\nsamples = 10\nvalue = [9, 1]", fillcolor="#e88f4f"] ;
410 -> 414 ;
415 [label="gini = 0.0\nsamples = 1\nvalue = [0, 1]", fillcolor="#399de5"] ;
414 -> 415 ;
416 [label="gini = 0.0\nsamples = 9\nvalue = [9, 0]", fillcolor="#e58139"] ;
414 -> 416 ;
417 [label="rob <= 0.634\ngini = 0.379\nsamples = 63\nvalue = [16, 47]", fillcolor="#7cbeee"] ;
409 -> 417 ;
418 [label="gini = 0.0\nsamples = 5\nvalue = [5, 0]", fillcolor="#e58139"] ;
417 -> 418 ;
419 [label="school <= 0.259\ngini = 0.307\nsamples = 58\nvalue = [11, 47]", fillcolor="#67b4eb"] ;
417 -> 419 ;
420 [label="DistanceType1_MRT <= 0.5\ngini = 0.483\nsamples = 22\nvalue = [9, 13]", fillcolor="#c2e1f7"] ;
419 -> 420 ;
421 [label="gini = 0.0\nsamples = 3\nvalue = [3, 0]", fillcolor="#e58139"] ;
420 -> 421 ;
422 [label="Feature4 <= 0.223\ngini = 0.432\nsamples = 19\nvalue = [6, 13]", fillcolor="#94caf1"] ;
420 -> 422 ;
423 [label="gini = 0.0\nsamples = 3\nvalue = [3, 0]", fillcolor="#e58139"] ;
422 -> 423 ;
424 [label="mrt <= 0.924\ngini = 0.305\nsamples = 16\nvalue = [3, 13]", fillcolor="#67b4eb"] ;
422 -> 424 ;
425 [label="school <= 0.174\ngini = 0.48\nsamples = 5\nvalue = [3, 2]", fillcolor="#f6d5bd"] ;
424 -> 425 ;
426 [label="Feature4 <= 0.349\ngini = 0.444\nsamples = 3\nvalue = [1, 2]", fillcolor="#9ccef2"] ;
425 -> 426 ;
427 [label="gini = 0.0\nsamples = 1\nvalue = [1, 0]", fillcolor="#e58139"] ;
426 -> 427 ;
428 [label="gini = 0.0\nsamples = 2\nvalue = [0, 2]", fillcolor="#399de5"] ;
426 -> 428 ;
429 [label="gini = 0.0\nsamples = 2\nvalue = [2, 0]", fillcolor="#e58139"] ;
425 -> 429 ;
430 [label="gini = 0.0\nsamples = 11\nvalue = [0, 11]", fillcolor="#399de5"] ;
424 -> 430 ;
431 [label="gini = 0.105\nsamples = 36\nvalue = [2, 34]", fillcolor="#45a3e7"] ;
419 -> 431 ;
432 [label="idle <= 233.0\ngini = 0.278\nsamples = 18\nvalue = [15, 3]", fillcolor="#ea9a61"] ;
366 -> 432 ;
433 [label="mrt <= 1.629\ngini = 0.5\nsamples = 6\nvalue = [3, 3]", fillcolor="#ffffff"] ;
432 -> 433 ;
434 [label="gini = 0.0\nsamples = 2\nvalue = [0, 2]", fillcolor="#399de5"] ;
433 -> 434 ;
435 [label="rob <= 1.097\ngini = 0.375\nsamples = 4\nvalue = [3, 1]", fillcolor="#eeab7b"] ;
433 -> 435 ;
436 [label="gini = 0.0\nsamples = 1\nvalue = [0, 1]", fillcolor="#399de5"] ;
435 -> 436 ;
437 [label="gini = 0.0\nsamples = 3\nvalue = [3, 0]", fillcolor="#e58139"] ;
435 -> 437 ;
438 [label="gini = 0.0\nsamples = 12\nvalue = [12, 0]", fillcolor="#e58139"] ;
432 -> 438 ;
439 [label="Feature4 <= 0.783\ngini = 0.431\nsamples = 1474\nvalue = [464, 1010]", fillcolor="#94caf1"] ;
1 -> 439 ;
440 [label="rob <= 3.376\ngini = 0.371\nsamples = 1126\nvalue = [277, 849]", fillcolor="#7abded"] ;
439 -> 440 ;
441 [label="Feature4 <= 0.378\ngini = 0.352\nsamples = 1088\nvalue = [248, 840]", fillcolor="#73baed"] ;
440 -> 441 ;
442 [label="park <= 0.046\ngini = 0.253\nsamples = 465\nvalue = [69, 396]", fillcolor="#5caeea"] ;
441 -> 442 ;
443 [label="school <= 0.06\ngini = 0.486\nsamples = 12\nvalue = [7, 5]", fillcolor="#f8dbc6"] ;
442 -> 443 ;
444 [label="gini = 0.0\nsamples = 3\nvalue = [0, 3]", fillcolor="#399de5"] ;
443 -> 444 ;
445 [label="school <= 0.312\ngini = 0.346\nsamples = 9\nvalue = [7, 2]", fillcolor="#eca572"] ;
443 -> 445 ;
446 [label="gini = 0.0\nsamples = 7\nvalue = [7, 0]", fillcolor="#e58139"] ;
445 -> 446 ;
447 [label="gini = 0.0\nsamples = 2\nvalue = [0, 2]", fillcolor="#399de5"] ;
445 -> 447 ;
448 [label="rob <= 0.668\ngini = 0.236\nsamples = 453\nvalue = [62, 391]", fillcolor="#58ade9"] ;
442 -> 448 ;
449 [label="gini = 0.038\nsamples = 103\nvalue = [2, 101]", fillcolor="#3d9fe6"] ;
448 -> 449 ;
450 [label="mrt <= 0.086\ngini = 0.284\nsamples = 350\nvalue = [60, 290]", fillcolor="#62b1ea"] ;
448 -> 450 ;
451 [label="park <= 0.067\ngini = 0.056\nsamples = 70\nvalue = [2, 68]", fillcolor="#3fa0e6"] ;
450 -> 451 ;
452 [label="Feature5 <= 0.001\ngini = 0.5\nsamples = 4\nvalue = [2, 2]", fillcolor="#ffffff"] ;
451 -> 452 ;
453 [label="gini = 0.0\nsamples = 2\nvalue = [0, 2]", fillcolor="#399de5"] ;
452 -> 453 ;
454 [label="gini = 0.0\nsamples = 2\nvalue = [2, 0]", fillcolor="#e58139"] ;
452 -> 454 ;
455 [label="gini = 0.0\nsamples = 66\nvalue = [0, 66]", fillcolor="#399de5"] ;
451 -> 455 ;
456 [label="school <= 0.088\ngini = 0.328\nsamples = 280\nvalue = [58, 222]", fillcolor="#6db7ec"] ;
450 -> 456 ;
457 [label="Feature1 <= 0.008\ngini = 0.142\nsamples = 78\nvalue = [6, 72]", fillcolor="#49a5e7"] ;
456 -> 457 ;
458 [label="park <= 0.129\ngini = 0.121\nsamples = 77\nvalue = [5, 72]", fillcolor="#47a4e7"] ;
457 -> 458 ;
459 [label="gini = 0.0\nsamples = 36\nvalue = [0, 36]", fillcolor="#399de5"] ;
458 -> 459 ;
460 [label="park <= 0.138\ngini = 0.214\nsamples = 41\nvalue = [5, 36]", fillcolor="#54abe9"] ;
458 -> 460 ;
461 [label="gini = 0.0\nsamples = 1\nvalue = [1, 0]", fillcolor="#e58139"] ;
460 -> 461 ;
462 [label="Feature4 <= 0.202\ngini = 0.18\nsamples = 40\nvalue = [4, 36]", fillcolor="#4fa8e8"] ;
460 -> 462 ;
463 [label="gini = 0.0\nsamples = 1\nvalue = [1, 0]", fillcolor="#e58139"] ;
462 -> 463 ;
464 [label="mrt <= 0.346\ngini = 0.142\nsamples = 39\nvalue = [3, 36]", fillcolor="#49a5e7"] ;
462 -> 464 ;
465 [label="gini = 0.0\nsamples = 23\nvalue = [0, 23]", fillcolor="#399de5"] ;
464 -> 465 ;
466 [label="mrt <= 0.408\ngini = 0.305\nsamples = 16\nvalue = [3, 13]", fillcolor="#67b4eb"] ;
464 -> 466 ;
467 [label="gini = 0.0\nsamples = 3\nvalue = [3, 0]", fillcolor="#e58139"] ;
466 -> 467 ;
468 [label="gini = 0.0\nsamples = 13\nvalue = [0, 13]", fillcolor="#399de5"] ;
466 -> 468 ;
469 [label="gini = 0.0\nsamples = 1\nvalue = [1, 0]", fillcolor="#e58139"] ;
457 -> 469 ;
470 [label="Feature4 <= 0.219\ngini = 0.382\nsamples = 202\nvalue = [52, 150]", fillcolor="#7ebfee"] ;
456 -> 470 ;
471 [label="school <= 0.139\ngini = 0.444\nsamples = 12\nvalue = [8, 4]", fillcolor="#f2c09c"] ;
470 -> 471 ;
472 [label="gini = 0.0\nsamples = 8\nvalue = [8, 0]", fillcolor="#e58139"] ;
471 -> 472 ;
473 [label="gini = 0.0\nsamples = 4\nvalue = [0, 4]", fillcolor="#399de5"] ;
471 -> 473 ;
474 [label="MonitorType2 <= 0.5\ngini = 0.356\nsamples = 190\nvalue = [44, 146]", fillcolor="#75bbed"] ;
470 -> 474 ;
475 [label="school <= 0.253\ngini = 0.45\nsamples = 76\nvalue = [26, 50]", fillcolor="#a0d0f3"] ;
474 -> 475 ;
476 [label="rob <= 2.694\ngini = 0.5\nsamples = 45\nvalue = [23, 22]", fillcolor="#fefaf6"] ;
475 -> 476 ;
477 [label="Feature1 <= 0.006\ngini = 0.492\nsamples = 39\nvalue = [17, 22]", fillcolor="#d2e9f9"] ;
476 -> 477 ;
478 [label="gini = 0.0\nsamples = 6\nvalue = [0, 6]", fillcolor="#399de5"] ;
477 -> 478 ;
479 [label="mrt <= 0.276\ngini = 0.5\nsamples = 33\nvalue = [17, 16]", fillcolor="#fdf8f3"] ;
477 -> 479 ;
480 [label="Feature1 <= 0.012\ngini = 0.415\nsamples = 17\nvalue = [12, 5]", fillcolor="#f0b58b"] ;
479 -> 480 ;
481 [label="DistanceType2_ROB <= 0.5\ngini = 0.245\nsamples = 14\nvalue = [12, 2]", fillcolor="#e9965a"] ;
480 -> 481 ;
482 [label="school <= 0.141\ngini = 0.48\nsamples = 5\nvalue = [3, 2]", fillcolor="#f6d5bd"] ;
481 -> 482 ;
483 [label="gini = 0.0\nsamples = 2\nvalue = [0, 2]", fillcolor="#399de5"] ;
482 -> 483 ;
484 [label="gini = 0.0\nsamples = 3\nvalue = [3, 0]", fillcolor="#e58139"] ;
482 -> 484 ;
485 [label="gini = 0.0\nsamples = 9\nvalue = [9, 0]", fillcolor="#e58139"] ;
481 -> 485 ;
486 [label="gini = 0.0\nsamples = 3\nvalue = [0, 3]", fillcolor="#399de5"] ;
480 -> 486 ;
487 [label="park <= 0.221\ngini = 0.43\nsamples = 16\nvalue = [5, 11]", fillcolor="#93caf1"] ;
479 -> 487 ;
488 [label="gini = 0.165\nsamples = 11\nvalue = [1, 10]", fillcolor="#4da7e8"] ;
487 -> 488 ;
489 [label="park <= 0.265\ngini = 0.32\nsamples = 5\nvalue = [4, 1]", fillcolor="#eca06a"] ;
487 -> 489 ;
490 [label="gini = 0.0\nsamples = 4\nvalue = [4, 0]", fillcolor="#e58139"] ;
489 -> 490 ;
491 [label="gini = 0.0\nsamples = 1\nvalue = [0, 1]", fillcolor="#399de5"] ;
489 -> 491 ;
492 [label="gini = 0.0\nsamples = 6\nvalue = [6, 0]", fillcolor="#e58139"] ;
476 -> 492 ;
493 [label="Feature4 <= 0.302\ngini = 0.175\nsamples = 31\nvalue = [3, 28]", fillcolor="#4ea8e8"] ;
475 -> 493 ;
494 [label="gini = 0.0\nsamples = 3\nvalue = [3, 0]", fillcolor="#e58139"] ;
493 -> 494 ;
495 [label="gini = 0.0\nsamples = 28\nvalue = [0, 28]", fillcolor="#399de5"] ;
493 -> 495 ;
496 [label="mrt <= 0.126\ngini = 0.266\nsamples = 114\nvalue = [18, 96]", fillcolor="#5eafea"] ;
474 -> 496 ;
497 [label="Feature4 <= 0.251\ngini = 0.469\nsamples = 8\nvalue = [5, 3]", fillcolor="#f5cdb0"] ;
496 -> 497 ;
498 [label="gini = 0.0\nsamples = 5\nvalue = [5, 0]", fillcolor="#e58139"] ;
497 -> 498 ;
499 [label="gini = 0.0\nsamples = 3\nvalue = [0, 3]", fillcolor="#399de5"] ;
497 -> 499 ;
500 [label="Feature1 <= 0.013\ngini = 0.215\nsamples = 106\nvalue = [13, 93]", fillcolor="#55abe9"] ;
496 -> 500 ;
501 [label="mrt <= 0.489\ngini = 0.191\nsamples = 103\nvalue = [11, 92]", fillcolor="#51a9e8"] ;
500 -> 501 ;
502 [label="Feature1 <= 0.01\ngini = 0.165\nsamples = 99\nvalue = [9, 90]", fillcolor="#4da7e8"] ;
501 -> 502 ;
503 [label="school <= 0.196\ngini = 0.113\nsamples = 83\nvalue = [5, 78]", fillcolor="#46a3e7"] ;
502 -> 503 ;
504 [label="gini = 0.034\nsamples = 58\nvalue = [1, 57]", fillcolor="#3c9fe5"] ;
503 -> 504 ;
505 [label="school <= 0.224\ngini = 0.269\nsamples = 25\nvalue = [4, 21]", fillcolor="#5fb0ea"] ;
503 -> 505 ;
506 [label="park <= 0.111\ngini = 0.49\nsamples = 7\nvalue = [4, 3]", fillcolor="#f8e0ce"] ;
505 -> 506 ;
507 [label="gini = 0.0\nsamples = 3\nvalue = [0, 3]", fillcolor="#399de5"] ;
506 -> 507 ;
508 [label="gini = 0.0\nsamples = 4\nvalue = [4, 0]", fillcolor="#e58139"] ;
506 -> 508 ;
509 [label="gini = 0.0\nsamples = 18\nvalue = [0, 18]", fillcolor="#399de5"] ;
505 -> 509 ;
510 [label="rob <= 1.812\ngini = 0.375\nsamples = 16\nvalue = [4, 12]", fillcolor="#7bbeee"] ;
502 -> 510 ;
511 [label="gini = 0.0\nsamples = 10\nvalue = [0, 10]", fillcolor="#399de5"] ;
510 -> 511 ;
512 [label="park <= 0.224\ngini = 0.444\nsamples = 6\nvalue = [4, 2]", fillcolor="#f2c09c"] ;
510 -> 512 ;
513 [label="gini = 0.0\nsamples = 4\nvalue = [4, 0]", fillcolor="#e58139"] ;
512 -> 513 ;
514 [label="gini = 0.0\nsamples = 2\nvalue = [0, 2]", fillcolor="#399de5"] ;
512 -> 514 ;
515 [label="mrt <= 0.51\ngini = 0.5\nsamples = 4\nvalue = [2, 2]", fillcolor="#ffffff"] ;
501 -> 515 ;
516 [label="gini = 0.0\nsamples = 2\nvalue = [2, 0]", fillcolor="#e58139"] ;
515 -> 516 ;
517 [label="gini = 0.0\nsamples = 2\nvalue = [0, 2]", fillcolor="#399de5"] ;
515 -> 517 ;
518 [label="DistanceType2_School <= 0.5\ngini = 0.444\nsamples = 3\nvalue = [2, 1]", fillcolor="#f2c09c"] ;
500 -> 518 ;
519 [label="gini = 0.0\nsamples = 1\nvalue = [0, 1]", fillcolor="#399de5"] ;
518 -> 519 ;
520 [label="gini = 0.0\nsamples = 2\nvalue = [2, 0]", fillcolor="#e58139"] ;
518 -> 520 ;
521 [label="mrt <= 0.728\ngini = 0.41\nsamples = 623\nvalue = [179, 444]", fillcolor="#89c5ef"] ;
441 -> 521 ;
522 [label="Feature1 <= 0.059\ngini = 0.452\nsamples = 458\nvalue = [158, 300]", fillcolor="#a1d1f3"] ;
521 -> 522 ;
523 [label="publand <= 12389041.0\ngini = 0.436\nsamples = 430\nvalue = [138, 292]", fillcolor="#97cbf1"] ;
522 -> 523 ;
524 [label="park <= 0.379\ngini = 0.408\nsamples = 371\nvalue = [106, 265]", fillcolor="#88c4ef"] ;
523 -> 524 ;
525 [label="Feature4 <= 0.514\ngini = 0.432\nsamples = 330\nvalue = [104, 226]", fillcolor="#94caf1"] ;
524 -> 525 ;
526 [label="school <= 0.249\ngini = 0.392\nsamples = 235\nvalue = [63, 172]", fillcolor="#82c1ef"] ;
525 -> 526 ;
527 [label="rob <= 0.683\ngini = 0.454\nsamples = 149\nvalue = [52, 97]", fillcolor="#a3d2f3"] ;
526 -> 527 ;
528 [label="gini = 0.0\nsamples = 18\nvalue = [0, 18]", fillcolor="#399de5"] ;
527 -> 528 ;
529 [label="park <= 0.306\ngini = 0.479\nsamples = 131\nvalue = [52, 79]", fillcolor="#bbdef6"] ;
527 -> 529 ;
530 [label="rob <= 2.786\ngini = 0.498\nsamples = 107\nvalue = [50, 57]", fillcolor="#e7f3fc"] ;
529 -> 530 ;
531 [label="rob <= 2.745\ngini = 0.5\nsamples = 99\nvalue = [50, 49]", fillcolor="#fefcfb"] ;
530 -> 531 ;
532 [label="park <= 0.154\ngini = 0.496\nsamples = 90\nvalue = [41, 49]", fillcolor="#dfeffb"] ;
531 -> 532 ;
533 [label="park <= 0.089\ngini = 0.363\nsamples = 21\nvalue = [16, 5]", fillcolor="#eda877"] ;
532 -> 533 ;
534 [label="Feature4 <= 0.386\ngini = 0.32\nsamples = 5\nvalue = [1, 4]", fillcolor="#6ab6ec"] ;
533 -> 534 ;
535 [label="gini = 0.0\nsamples = 1\nvalue = [1, 0]", fillcolor="#e58139"] ;
534 -> 535 ;
536 [label="gini = 0.0\nsamples = 4\nvalue = [0, 4]", fillcolor="#399de5"] ;
534 -> 536 ;
537 [label="gini = 0.117\nsamples = 16\nvalue = [15, 1]", fillcolor="#e78946"] ;
533 -> 537 ;
538 [label="rob <= 1.126\ngini = 0.462\nsamples = 69\nvalue = [25, 44]", fillcolor="#aad5f4"] ;
532 -> 538 ;
539 [label="Feature4 <= 0.389\ngini = 0.231\nsamples = 15\nvalue = [2, 13]", fillcolor="#57ace9"] ;
538 -> 539 ;
540 [label="gini = 0.0\nsamples = 1\nvalue = [1, 0]", fillcolor="#e58139"] ;
539 -> 540 ;
541 [label="gini = 0.133\nsamples = 14\nvalue = [1, 13]", fillcolor="#48a5e7"] ;
539 -> 541 ;
542 [label="rob <= 1.874\ngini = 0.489\nsamples = 54\nvalue = [23, 31]", fillcolor="#cce6f8"] ;
538 -> 542 ;
543 [label="park <= 0.213\ngini = 0.488\nsamples = 26\nvalue = [15, 11]", fillcolor="#f8ddca"] ;
542 -> 543 ;
544 [label="gini = 0.198\nsamples = 9\nvalue = [8, 1]", fillcolor="#e89152"] ;
543 -> 544 ;
545 [label="Feature1 <= 0.015\ngini = 0.484\nsamples = 17\nvalue = [7, 10]", fillcolor="#c4e2f7"] ;
543 -> 545 ;
546 [label="Feature1 <= 0.014\ngini = 0.48\nsamples = 10\nvalue = [6, 4]", fillcolor="#f6d5bd"] ;
545 -> 546 ;
547 [label="school <= 0.07\ngini = 0.444\nsamples = 6\nvalue = [2, 4]", fillcolor="#9ccef2"] ;
546 -> 547 ;
548 [label="gini = 0.0\nsamples = 2\nvalue = [2, 0]", fillcolor="#e58139"] ;
547 -> 548 ;
549 [label="gini = 0.0\nsamples = 4\nvalue = [0, 4]", fillcolor="#399de5"] ;
547 -> 549 ;
550 [label="gini = 0.0\nsamples = 4\nvalue = [4, 0]", fillcolor="#e58139"] ;
546 -> 550 ;
551 [label="rob <= 1.3\ngini = 0.245\nsamples = 7\nvalue = [1, 6]", fillcolor="#5aade9"] ;
545 -> 551 ;
552 [label="gini = 0.0\nsamples = 1\nvalue = [1, 0]", fillcolor="#e58139"] ;
551 -> 552 ;
553 [label="gini = 0.0\nsamples = 6\nvalue = [0, 6]", fillcolor="#399de5"] ;
551 -> 553 ;
554 [label="rob <= 2.119\ngini = 0.408\nsamples = 28\nvalue = [8, 20]", fillcolor="#88c4ef"] ;
542 -> 554 ;
555 [label="gini = 0.0\nsamples = 13\nvalue = [0, 13]", fillcolor="#399de5"] ;
554 -> 555 ;
556 [label="Feature1 <= 0.019\ngini = 0.498\nsamples = 15\nvalue = [8, 7]", fillcolor="#fcefe6"] ;
554 -> 556 ;
557 [label="mrt <= 0.645\ngini = 0.245\nsamples = 7\nvalue = [6, 1]", fillcolor="#e9965a"] ;
556 -> 557 ;
558 [label="gini = 0.0\nsamples = 6\nvalue = [6, 0]", fillcolor="#e58139"] ;
557 -> 558 ;
559 [label="gini = 0.0\nsamples = 1\nvalue = [0, 1]", fillcolor="#399de5"] ;
557 -> 559 ;
560 [label="rob <= 2.252\ngini = 0.375\nsamples = 8\nvalue = [2, 6]", fillcolor="#7bbeee"] ;
556 -> 560 ;
561 [label="gini = 0.0\nsamples = 5\nvalue = [0, 5]", fillcolor="#399de5"] ;
560 -> 561 ;
562 [label="school <= 0.217\ngini = 0.444\nsamples = 3\nvalue = [2, 1]", fillcolor="#f2c09c"] ;
560 -> 562 ;
563 [label="gini = 0.0\nsamples = 1\nvalue = [0, 1]", fillcolor="#399de5"] ;
562 -> 563 ;
564 [label="gini = 0.0\nsamples = 2\nvalue = [2, 0]", fillcolor="#e58139"] ;
562 -> 564 ;
565 [label="gini = 0.0\nsamples = 9\nvalue = [9, 0]", fillcolor="#e58139"] ;
531 -> 565 ;
566 [label="gini = 0.0\nsamples = 8\nvalue = [0, 8]", fillcolor="#399de5"] ;
530 -> 566 ;
567 [label="Feature1 <= 0.023\ngini = 0.153\nsamples = 24\nvalue = [2, 22]", fillcolor="#4ba6e7"] ;
529 -> 567 ;
568 [label="gini = 0.0\nsamples = 17\nvalue = [0, 17]", fillcolor="#399de5"] ;
567 -> 568 ;
569 [label="Feature1 <= 0.025\ngini = 0.408\nsamples = 7\nvalue = [2, 5]", fillcolor="#88c4ef"] ;
567 -> 569 ;
570 [label="gini = 0.0\nsamples = 2\nvalue = [2, 0]", fillcolor="#e58139"] ;
569 -> 570 ;
571 [label="gini = 0.0\nsamples = 5\nvalue = [0, 5]", fillcolor="#399de5"] ;
569 -> 571 ;
572 [label="Feature4 <= 0.422\ngini = 0.223\nsamples = 86\nvalue = [11, 75]", fillcolor="#56abe9"] ;
526 -> 572 ;
573 [label="publand <= 6549735.5\ngini = 0.432\nsamples = 19\nvalue = [6, 13]", fillcolor="#94caf1"] ;
572 -> 573 ;
574 [label="gini = 0.153\nsamples = 12\nvalue = [1, 11]", fillcolor="#4ba6e7"] ;
573 -> 574 ;
575 [label="mrt <= 0.259\ngini = 0.408\nsamples = 7\nvalue = [5, 2]", fillcolor="#efb388"] ;
573 -> 575 ;
576 [label="Feature6 <= 8049.875\ngini = 0.444\nsamples = 3\nvalue = [1, 2]", fillcolor="#9ccef2"] ;
575 -> 576 ;
577 [label="gini = 0.0\nsamples = 2\nvalue = [0, 2]", fillcolor="#399de5"] ;
576 -> 577 ;
578 [label="gini = 0.0\nsamples = 1\nvalue = [1, 0]", fillcolor="#e58139"] ;
576 -> 578 ;
579 [label="gini = 0.0\nsamples = 4\nvalue = [4, 0]", fillcolor="#e58139"] ;
575 -> 579 ;
580 [label="mrt <= 0.406\ngini = 0.138\nsamples = 67\nvalue = [5, 62]", fillcolor="#49a5e7"] ;
572 -> 580 ;
581 [label="Feature4 <= 0.476\ngini = 0.245\nsamples = 28\nvalue = [4, 24]", fillcolor="#5aade9"] ;
580 -> 581 ;
582 [label="Feature1 <= 0.02\ngini = 0.147\nsamples = 25\nvalue = [2, 23]", fillcolor="#4aa6e7"] ;
581 -> 582 ;
583 [label="gini = 0.0\nsamples = 15\nvalue = [0, 15]", fillcolor="#399de5"] ;
582 -> 583 ;
584 [label="park <= 0.205\ngini = 0.32\nsamples = 10\nvalue = [2, 8]", fillcolor="#6ab6ec"] ;
582 -> 584 ;
585 [label="gini = 0.0\nsamples = 2\nvalue = [2, 0]", fillcolor="#e58139"] ;
584 -> 585 ;
586 [label="gini = 0.0\nsamples = 8\nvalue = [0, 8]", fillcolor="#399de5"] ;
584 -> 586 ;
587 [label="robbery <= 0.5\ngini = 0.444\nsamples = 3\nvalue = [2, 1]", fillcolor="#f2c09c"] ;
581 -> 587 ;
588 [label="gini = 0.0\nsamples = 1\nvalue = [0, 1]", fillcolor="#399de5"] ;
587 -> 588 ;
589 [label="gini = 0.0\nsamples = 2\nvalue = [2, 0]", fillcolor="#e58139"] ;
587 -> 589 ;
590 [label="gini = 0.05\nsamples = 39\nvalue = [1, 38]", fillcolor="#3ea0e6"] ;
580 -> 590 ;
591 [label="Feature4 <= 0.522\ngini = 0.491\nsamples = 95\nvalue = [41, 54]", fillcolor="#cfe7f9"] ;
525 -> 591 ;
592 [label="park <= 0.252\ngini = 0.32\nsamples = 15\nvalue = [12, 3]", fillcolor="#eca06a"] ;
591 -> 592 ;
593 [label="gini = 0.0\nsamples = 2\nvalue = [0, 2]", fillcolor="#399de5"] ;
592 -> 593 ;
594 [label="gini = 0.142\nsamples = 13\nvalue = [12, 1]", fillcolor="#e78c49"] ;
592 -> 594 ;
595 [label="rob <= 2.488\ngini = 0.462\nsamples = 80\nvalue = [29, 51]", fillcolor="#aad5f4"] ;
591 -> 595 ;
596 [label="Feature4 <= 0.588\ngini = 0.499\nsamples = 59\nvalue = [28, 31]", fillcolor="#ecf6fc"] ;
595 -> 596 ;
597 [label="Feature4 <= 0.537\ngini = 0.467\nsamples = 35\nvalue = [22, 13]", fillcolor="#f4cbae"] ;
596 -> 597 ;
598 [label="mrt <= 0.416\ngini = 0.42\nsamples = 10\nvalue = [3, 7]", fillcolor="#8ec7f0"] ;
597 -> 598 ;
599 [label="gini = 0.0\nsamples = 5\nvalue = [0, 5]", fillcolor="#399de5"] ;
598 -> 599 ;
600 [label="park <= 0.212\ngini = 0.48\nsamples = 5\nvalue = [3, 2]", fillcolor="#f6d5bd"] ;
598 -> 600 ;
601 [label="park <= 0.13\ngini = 0.444\nsamples = 3\nvalue = [1, 2]", fillcolor="#9ccef2"] ;
600 -> 601 ;
602 [label="gini = 0.0\nsamples = 1\nvalue = [1, 0]", fillcolor="#e58139"] ;
601 -> 602 ;
603 [label="gini = 0.0\nsamples = 2\nvalue = [0, 2]", fillcolor="#399de5"] ;
601 -> 603 ;
604 [label="gini = 0.0\nsamples = 2\nvalue = [2, 0]", fillcolor="#e58139"] ;
600 -> 604 ;
605 [label="mrt <= 0.662\ngini = 0.365\nsamples = 25\nvalue = [19, 6]", fillcolor="#eda978"] ;
597 -> 605 ;
606 [label="Feature4 <= 0.557\ngini = 0.245\nsamples = 21\nvalue = [18, 3]", fillcolor="#e9965a"] ;
605 -> 606 ;
607 [label="Feature4 <= 0.553\ngini = 0.444\nsamples = 9\nvalue = [6, 3]", fillcolor="#f2c09c"] ;
606 -> 607 ;
608 [label="mrt <= 0.092\ngini = 0.245\nsamples = 7\nvalue = [6, 1]", fillcolor="#e9965a"] ;
607 -> 608 ;
609 [label="gini = 0.0\nsamples = 1\nvalue = [0, 1]", fillcolor="#399de5"] ;
608 -> 609 ;
610 [label="gini = 0.0\nsamples = 6\nvalue = [6, 0]", fillcolor="#e58139"] ;
608 -> 610 ;
611 [label="gini = 0.0\nsamples = 2\nvalue = [0, 2]", fillcolor="#399de5"] ;
607 -> 611 ;
612 [label="gini = 0.0\nsamples = 12\nvalue = [12, 0]", fillcolor="#e58139"] ;
606 -> 612 ;
613 [label="school <= 0.297\ngini = 0.375\nsamples = 4\nvalue = [1, 3]", fillcolor="#7bbeee"] ;
605 -> 613 ;
614 [label="gini = 0.0\nsamples = 3\nvalue = [0, 3]", fillcolor="#399de5"] ;
613 -> 614 ;
615 [label="gini = 0.0\nsamples = 1\nvalue = [1, 0]", fillcolor="#e58139"] ;
613 -> 615 ;
616 [label="park <= 0.161\ngini = 0.375\nsamples = 24\nvalue = [6, 18]", fillcolor="#7bbeee"] ;
596 -> 616 ;
617 [label="rob <= 1.407\ngini = 0.48\nsamples = 10\nvalue = [6, 4]", fillcolor="#f6d5bd"] ;
616 -> 617 ;
618 [label="rob <= 1.065\ngini = 0.375\nsamples = 4\nvalue = [1, 3]", fillcolor="#7bbeee"] ;
617 -> 618 ;
619 [label="gini = 0.0\nsamples = 1\nvalue = [1, 0]", fillcolor="#e58139"] ;
618 -> 619 ;
620 [label="gini = 0.0\nsamples = 3\nvalue = [0, 3]", fillcolor="#399de5"] ;
618 -> 620 ;
621 [label="rob <= 2.164\ngini = 0.278\nsamples = 6\nvalue = [5, 1]", fillcolor="#ea9a61"] ;
617 -> 621 ;
622 [label="gini = 0.0\nsamples = 5\nvalue = [5, 0]", fillcolor="#e58139"] ;
621 -> 622 ;
623 [label="gini = 0.0\nsamples = 1\nvalue = [0, 1]", fillcolor="#399de5"] ;
621 -> 623 ;
624 [label="gini = 0.0\nsamples = 14\nvalue = [0, 14]", fillcolor="#399de5"] ;
616 -> 624 ;
625 [label="Feature4 <= 0.532\ngini = 0.091\nsamples = 21\nvalue = [1, 20]", fillcolor="#43a2e6"] ;
595 -> 625 ;
626 [label="gini = 0.0\nsamples = 1\nvalue = [1, 0]", fillcolor="#e58139"] ;
625 -> 626 ;
627 [label="gini = 0.0\nsamples = 20\nvalue = [0, 20]", fillcolor="#399de5"] ;
625 -> 627 ;
628 [label="rob <= 0.7\ngini = 0.093\nsamples = 41\nvalue = [2, 39]", fillcolor="#43a2e6"] ;
524 -> 628 ;
629 [label="rob <= 0.604\ngini = 0.208\nsamples = 17\nvalue = [2, 15]", fillcolor="#53aae8"] ;
628 -> 629 ;
630 [label="park <= 0.393\ngini = 0.117\nsamples = 16\nvalue = [1, 15]", fillcolor="#46a4e7"] ;
629 -> 630 ;
631 [label="gini = 0.0\nsamples = 1\nvalue = [1, 0]", fillcolor="#e58139"] ;
630 -> 631 ;
632 [label="gini = 0.0\nsamples = 15\nvalue = [0, 15]", fillcolor="#399de5"] ;
630 -> 632 ;
633 [label="gini = 0.0\nsamples = 1\nvalue = [1, 0]", fillcolor="#e58139"] ;
629 -> 633 ;
634 [label="gini = 0.0\nsamples = 24\nvalue = [0, 24]", fillcolor="#399de5"] ;
628 -> 634 ;
635 [label="Feature1 <= 0.034\ngini = 0.496\nsamples = 59\nvalue = [32, 27]", fillcolor="#fbebe0"] ;
523 -> 635 ;
636 [label="park <= 0.193\ngini = 0.449\nsamples = 47\nvalue = [31, 16]", fillcolor="#f2c29f"] ;
635 -> 636 ;
637 [label="Feature1 <= 0.018\ngini = 0.415\nsamples = 17\nvalue = [5, 12]", fillcolor="#8bc6f0"] ;
636 -> 637 ;
638 [label="school <= 0.35\ngini = 0.245\nsamples = 14\nvalue = [2, 12]", fillcolor="#5aade9"] ;
637 -> 638 ;
639 [label="gini = 0.142\nsamples = 13\nvalue = [1, 12]", fillcolor="#49a5e7"] ;
638 -> 639 ;
640 [label="gini = 0.0\nsamples = 1\nvalue = [1, 0]", fillcolor="#e58139"] ;
638 -> 640 ;
641 [label="gini = 0.0\nsamples = 3\nvalue = [3, 0]", fillcolor="#e58139"] ;
637 -> 641 ;
642 [label="rob <= 0.07\ngini = 0.231\nsamples = 30\nvalue = [26, 4]", fillcolor="#e99457"] ;
636 -> 642 ;
643 [label="gini = 0.0\nsamples = 2\nvalue = [0, 2]", fillcolor="#399de5"] ;
642 -> 643 ;
644 [label="rob <= 2.249\ngini = 0.133\nsamples = 28\nvalue = [26, 2]", fillcolor="#e78b48"] ;
642 -> 644 ;
645 [label="gini = 0.071\nsamples = 27\nvalue = [26, 1]", fillcolor="#e68641"] ;
644 -> 645 ;
646 [label="gini = 0.0\nsamples = 1\nvalue = [0, 1]", fillcolor="#399de5"] ;
644 -> 646 ;
647 [label="gini = 0.153\nsamples = 12\nvalue = [1, 11]", fillcolor="#4ba6e7"] ;
635 -> 647 ;
648 [label="park <= 0.44\ngini = 0.408\nsamples = 28\nvalue = [20, 8]", fillcolor="#efb388"] ;
522 -> 648 ;
649 [label="rob <= 1.151\ngini = 0.278\nsamples = 24\nvalue = [20, 4]", fillcolor="#ea9a61"] ;
648 -> 649 ;
650 [label="Feature4 <= 0.64\ngini = 0.444\nsamples = 3\nvalue = [1, 2]", fillcolor="#9ccef2"] ;
649 -> 650 ;
651 [label="gini = 0.0\nsamples = 1\nvalue = [1, 0]", fillcolor="#e58139"] ;
650 -> 651 ;
652 [label="gini = 0.0\nsamples = 2\nvalue = [0, 2]", fillcolor="#399de5"] ;
650 -> 652 ;
653 [label="DistanceType1_School <= 0.5\ngini = 0.172\nsamples = 21\nvalue = [19, 2]", fillcolor="#e88e4e"] ;
649 -> 653 ;
654 [label="gini = 0.0\nsamples = 1\nvalue = [0, 1]", fillcolor="#399de5"] ;
653 -> 654 ;
655 [label="Feature5 <= 0.001\ngini = 0.095\nsamples = 20\nvalue = [19, 1]", fillcolor="#e68843"] ;
653 -> 655 ;
656 [label="gini = 0.0\nsamples = 1\nvalue = [0, 1]", fillcolor="#399de5"] ;
655 -> 656 ;
657 [label="gini = 0.0\nsamples = 19\nvalue = [19, 0]", fillcolor="#e58139"] ;
655 -> 657 ;
658 [label="gini = 0.0\nsamples = 4\nvalue = [0, 4]", fillcolor="#399de5"] ;
648 -> 658 ;
659 [label="park <= 0.246\ngini = 0.222\nsamples = 165\nvalue = [21, 144]", fillcolor="#56abe9"] ;
521 -> 659 ;
660 [label="park <= 0.201\ngini = 0.386\nsamples = 69\nvalue = [18, 51]", fillcolor="#7fc0ee"] ;
659 -> 660 ;
661 [label="rob <= 1.68\ngini = 0.289\nsamples = 57\nvalue = [10, 47]", fillcolor="#63b2eb"] ;
660 -> 661 ;
662 [label="gini = 0.0\nsamples = 39\nvalue = [0, 39]", fillcolor="#399de5"] ;
661 -> 662 ;
663 [label="park <= 0.127\ngini = 0.494\nsamples = 18\nvalue = [10, 8]", fillcolor="#fae6d7"] ;
661 -> 663 ;
664 [label="gini = 0.0\nsamples = 8\nvalue = [0, 8]", fillcolor="#399de5"] ;
663 -> 664 ;
665 [label="gini = 0.0\nsamples = 10\nvalue = [10, 0]", fillcolor="#e58139"] ;
663 -> 665 ;
666 [label="mrt <= 0.758\ngini = 0.444\nsamples = 12\nvalue = [8, 4]", fillcolor="#f2c09c"] ;
660 -> 666 ;
667 [label="gini = 0.0\nsamples = 3\nvalue = [0, 3]", fillcolor="#399de5"] ;
666 -> 667 ;
668 [label="gini = 0.198\nsamples = 9\nvalue = [8, 1]", fillcolor="#e89152"] ;
666 -> 668 ;
669 [label="school <= 0.356\ngini = 0.061\nsamples = 96\nvalue = [3, 93]", fillcolor="#3fa0e6"] ;
659 -> 669 ;
670 [label="rob <= 2.539\ngini = 0.041\nsamples = 95\nvalue = [2, 93]", fillcolor="#3d9fe6"] ;
669 -> 670 ;
671 [label="gini = 0.0\nsamples = 73\nvalue = [0, 73]", fillcolor="#399de5"] ;
670 -> 671 ;
672 [label="rob <= 2.593\ngini = 0.165\nsamples = 22\nvalue = [2, 20]", fillcolor="#4da7e8"] ;
670 -> 672 ;
673 [label="gini = 0.0\nsamples = 2\nvalue = [2, 0]", fillcolor="#e58139"] ;
672 -> 673 ;
674 [label="gini = 0.0\nsamples = 20\nvalue = [0, 20]", fillcolor="#399de5"] ;
672 -> 674 ;
675 [label="gini = 0.0\nsamples = 1\nvalue = [1, 0]", fillcolor="#e58139"] ;
669 -> 675 ;
676 [label="Feature1 <= 0.048\ngini = 0.361\nsamples = 38\nvalue = [29, 9]", fillcolor="#eda876"] ;
440 -> 676 ;
677 [label="mrt <= 0.107\ngini = 0.257\nsamples = 33\nvalue = [28, 5]", fillcolor="#ea985c"] ;
676 -> 677 ;
678 [label="gini = 0.0\nsamples = 1\nvalue = [0, 1]", fillcolor="#399de5"] ;
677 -> 678 ;
679 [label="park <= 0.058\ngini = 0.219\nsamples = 32\nvalue = [28, 4]", fillcolor="#e99355"] ;
677 -> 679 ;
680 [label="rob <= 3.809\ngini = 0.49\nsamples = 7\nvalue = [4, 3]", fillcolor="#f8e0ce"] ;
679 -> 680 ;
681 [label="gini = 0.375\nsamples = 4\nvalue = [1, 3]", fillcolor="#7bbeee"] ;
680 -> 681 ;
682 [label="gini = 0.0\nsamples = 3\nvalue = [3, 0]", fillcolor="#e58139"] ;
680 -> 682 ;
683 [label="gini = 0.077\nsamples = 25\nvalue = [24, 1]", fillcolor="#e68641"] ;
679 -> 683 ;
684 [label="Feature2 <= 3.5\ngini = 0.32\nsamples = 5\nvalue = [1, 4]", fillcolor="#6ab6ec"] ;
676 -> 684 ;
685 [label="gini = 0.0\nsamples = 1\nvalue = [1, 0]", fillcolor="#e58139"] ;
684 -> 685 ;
686 [label="gini = 0.0\nsamples = 4\nvalue = [0, 4]", fillcolor="#399de5"] ;
684 -> 686 ;
687 [label="school <= 0.179\ngini = 0.497\nsamples = 348\nvalue = [187, 161]", fillcolor="#fbede3"] ;
439 -> 687 ;
688 [label="Feature4 <= 1.111\ngini = 0.479\nsamples = 123\nvalue = [49, 74]", fillcolor="#bcdef6"] ;
687 -> 688 ;
689 [label="mrt <= 0.24\ngini = 0.378\nsamples = 79\nvalue = [20, 59]", fillcolor="#7cbeee"] ;
688 -> 689 ;
690 [label="gini = 0.0\nsamples = 2\nvalue = [2, 0]", fillcolor="#e58139"] ;
689 -> 690 ;
691 [label="rob <= 4.561\ngini = 0.358\nsamples = 77\nvalue = [18, 59]", fillcolor="#75bbed"] ;
689 -> 691 ;
692 [label="Feature2 <= 4.5\ngini = 0.336\nsamples = 75\nvalue = [16, 59]", fillcolor="#6fb8ec"] ;
691 -> 692 ;
693 [label="park <= 0.193\ngini = 0.375\nsamples = 4\nvalue = [3, 1]", fillcolor="#eeab7b"] ;
692 -> 693 ;
694 [label="gini = 0.0\nsamples = 1\nvalue = [0, 1]", fillcolor="#399de5"] ;
693 -> 694 ;
695 [label="gini = 0.0\nsamples = 3\nvalue = [3, 0]", fillcolor="#e58139"] ;
693 -> 695 ;
696 [label="Feature1 <= 0.019\ngini = 0.299\nsamples = 71\nvalue = [13, 58]", fillcolor="#65b3eb"] ;
692 -> 696 ;
697 [label="school <= 0.151\ngini = 0.43\nsamples = 32\nvalue = [10, 22]", fillcolor="#93caf1"] ;
696 -> 697 ;
698 [label="rob <= 2.86\ngini = 0.302\nsamples = 27\nvalue = [5, 22]", fillcolor="#66b3eb"] ;
697 -> 698 ;
699 [label="rob <= 2.7\ngini = 0.486\nsamples = 12\nvalue = [5, 7]", fillcolor="#c6e3f8"] ;
698 -> 699 ;
700 [label="rob <= 1.666\ngini = 0.42\nsamples = 10\nvalue = [3, 7]", fillcolor="#8ec7f0"] ;
699 -> 700 ;
701 [label="park <= 0.183\ngini = 0.5\nsamples = 6\nvalue = [3, 3]", fillcolor="#ffffff"] ;
700 -> 701 ;
702 [label="gini = 0.0\nsamples = 2\nvalue = [2, 0]", fillcolor="#e58139"] ;
701 -> 702 ;
703 [label="Feature4 <= 1.001\ngini = 0.375\nsamples = 4\nvalue = [1, 3]", fillcolor="#7bbeee"] ;
701 -> 703 ;
704 [label="gini = 0.0\nsamples = 3\nvalue = [0, 3]", fillcolor="#399de5"] ;
703 -> 704 ;
705 [label="gini = 0.0\nsamples = 1\nvalue = [1, 0]", fillcolor="#e58139"] ;
703 -> 705 ;
706 [label="gini = 0.0\nsamples = 4\nvalue = [0, 4]", fillcolor="#399de5"] ;
700 -> 706 ;
707 [label="gini = 0.0\nsamples = 2\nvalue = [2, 0]", fillcolor="#e58139"] ;
699 -> 707 ;
708 [label="gini = 0.0\nsamples = 15\nvalue = [0, 15]", fillcolor="#399de5"] ;
698 -> 708 ;
709 [label="gini = 0.0\nsamples = 5\nvalue = [5, 0]", fillcolor="#e58139"] ;
697 -> 709 ;
710 [label="school <= 0.081\ngini = 0.142\nsamples = 39\nvalue = [3, 36]", fillcolor="#49a5e7"] ;
696 -> 710 ;
711 [label="gini = 0.0\nsamples = 1\nvalue = [1, 0]", fillcolor="#e58139"] ;
710 -> 711 ;
712 [label="mrt <= 1.409\ngini = 0.1\nsamples = 38\nvalue = [2, 36]", fillcolor="#44a2e6"] ;
710 -> 712 ;
713 [label="gini = 0.0\nsamples = 25\nvalue = [0, 25]", fillcolor="#399de5"] ;
712 -> 713 ;
714 [label="mrt <= 1.543\ngini = 0.26\nsamples = 13\nvalue = [2, 11]", fillcolor="#5dafea"] ;
712 -> 714 ;
715 [label="school <= 0.141\ngini = 0.444\nsamples = 3\nvalue = [2, 1]", fillcolor="#f2c09c"] ;
714 -> 715 ;
716 [label="gini = 0.0\nsamples = 2\nvalue = [2, 0]", fillcolor="#e58139"] ;
715 -> 716 ;
717 [label="gini = 0.0\nsamples = 1\nvalue = [0, 1]", fillcolor="#399de5"] ;
715 -> 717 ;
718 [label="gini = 0.0\nsamples = 10\nvalue = [0, 10]", fillcolor="#399de5"] ;
714 -> 718 ;
719 [label="gini = 0.0\nsamples = 2\nvalue = [2, 0]", fillcolor="#e58139"] ;
691 -> 719 ;
720 [label="Feature4 <= 1.732\ngini = 0.449\nsamples = 44\nvalue = [29, 15]", fillcolor="#f2c29f"] ;
688 -> 720 ;
721 [label="school <= 0.122\ngini = 0.334\nsamples = 33\nvalue = [26, 7]", fillcolor="#eca36e"] ;
720 -> 721 ;
722 [label="school <= 0.02\ngini = 0.095\nsamples = 20\nvalue = [19, 1]", fillcolor="#e68843"] ;
721 -> 722 ;
723 [label="gini = 0.0\nsamples = 1\nvalue = [0, 1]", fillcolor="#399de5"] ;
722 -> 723 ;
724 [label="gini = 0.0\nsamples = 19\nvalue = [19, 0]", fillcolor="#e58139"] ;
722 -> 724 ;
725 [label="park <= 0.213\ngini = 0.497\nsamples = 13\nvalue = [7, 6]", fillcolor="#fbede3"] ;
721 -> 725 ;
726 [label="park <= 0.141\ngini = 0.375\nsamples = 8\nvalue = [6, 2]", fillcolor="#eeab7b"] ;
725 -> 726 ;
727 [label="Feature1 <= 0.014\ngini = 0.444\nsamples = 3\nvalue = [1, 2]", fillcolor="#9ccef2"] ;
726 -> 727 ;
728 [label="gini = 0.0\nsamples = 1\nvalue = [1, 0]", fillcolor="#e58139"] ;
727 -> 728 ;
729 [label="gini = 0.0\nsamples = 2\nvalue = [0, 2]", fillcolor="#399de5"] ;
727 -> 729 ;
730 [label="gini = 0.0\nsamples = 5\nvalue = [5, 0]", fillcolor="#e58139"] ;
726 -> 730 ;
731 [label="Feature4 <= 1.396\ngini = 0.32\nsamples = 5\nvalue = [1, 4]", fillcolor="#6ab6ec"] ;
725 -> 731 ;
732 [label="gini = 0.0\nsamples = 4\nvalue = [0, 4]", fillcolor="#399de5"] ;
731 -> 732 ;
733 [label="gini = 0.0\nsamples = 1\nvalue = [1, 0]", fillcolor="#e58139"] ;
731 -> 733 ;
734 [label="Feature1 <= 0.019\ngini = 0.397\nsamples = 11\nvalue = [3, 8]", fillcolor="#83c2ef"] ;
720 -> 734 ;
735 [label="gini = 0.0\nsamples = 5\nvalue = [0, 5]", fillcolor="#399de5"] ;
734 -> 735 ;
736 [label="Feature4 <= 2.152\ngini = 0.5\nsamples = 6\nvalue = [3, 3]", fillcolor="#ffffff"] ;
734 -> 736 ;
737 [label="Feature4 <= 1.793\ngini = 0.375\nsamples = 4\nvalue = [1, 3]", fillcolor="#7bbeee"] ;
736 -> 737 ;
738 [label="gini = 0.0\nsamples = 1\nvalue = [1, 0]", fillcolor="#e58139"] ;
737 -> 738 ;
739 [label="gini = 0.0\nsamples = 3\nvalue = [0, 3]", fillcolor="#399de5"] ;
737 -> 739 ;
740 [label="gini = 0.0\nsamples = 2\nvalue = [2, 0]", fillcolor="#e58139"] ;
736 -> 740 ;
741 [label="school <= 0.373\ngini = 0.474\nsamples = 225\nvalue = [138, 87]", fillcolor="#f5d0b6"] ;
687 -> 741 ;
742 [label="Feature4 <= 1.452\ngini = 0.375\nsamples = 124\nvalue = [93, 31]", fillcolor="#eeab7b"] ;
741 -> 742 ;
743 [label="monitor <= 1600.5\ngini = 0.328\nsamples = 116\nvalue = [92, 24]", fillcolor="#eca26d"] ;
742 -> 743 ;
744 [label="school <= 0.217\ngini = 0.295\nsamples = 111\nvalue = [91, 20]", fillcolor="#eb9d65"] ;
743 -> 744 ;
745 [label="park <= 0.322\ngini = 0.444\nsamples = 33\nvalue = [22, 11]", fillcolor="#f2c09c"] ;
744 -> 745 ;
746 [label="school <= 0.208\ngini = 0.497\nsamples = 24\nvalue = [13, 11]", fillcolor="#fbece1"] ;
745 -> 746 ;
747 [label="Feature4 <= 1.257\ngini = 0.444\nsamples = 18\nvalue = [12, 6]", fillcolor="#f2c09c"] ;
746 -> 747 ;
748 [label="park <= 0.174\ngini = 0.375\nsamples = 16\nvalue = [12, 4]", fillcolor="#eeab7b"] ;
747 -> 748 ;
749 [label="gini = 0.0\nsamples = 10\nvalue = [10, 0]", fillcolor="#e58139"] ;
748 -> 749 ;
750 [label="rob <= 0.961\ngini = 0.444\nsamples = 6\nvalue = [2, 4]", fillcolor="#9ccef2"] ;
748 -> 750 ;
751 [label="gini = 0.0\nsamples = 1\nvalue = [1, 0]", fillcolor="#e58139"] ;
750 -> 751 ;
752 [label="school <= 0.206\ngini = 0.32\nsamples = 5\nvalue = [1, 4]", fillcolor="#6ab6ec"] ;
750 -> 752 ;
753 [label="gini = 0.0\nsamples = 4\nvalue = [0, 4]", fillcolor="#399de5"] ;
752 -> 753 ;
754 [label="gini = 0.0\nsamples = 1\nvalue = [1, 0]", fillcolor="#e58139"] ;
752 -> 754 ;
755 [label="gini = 0.0\nsamples = 2\nvalue = [0, 2]", fillcolor="#399de5"] ;
747 -> 755 ;
756 [label="mrt <= 1.361\ngini = 0.278\nsamples = 6\nvalue = [1, 5]", fillcolor="#61b1ea"] ;
746 -> 756 ;
757 [label="gini = 0.0\nsamples = 1\nvalue = [1, 0]", fillcolor="#e58139"] ;
756 -> 757 ;
758 [label="gini = 0.0\nsamples = 5\nvalue = [0, 5]", fillcolor="#399de5"] ;
756 -> 758 ;
759 [label="gini = 0.0\nsamples = 9\nvalue = [9, 0]", fillcolor="#e58139"] ;
745 -> 759 ;
760 [label="mrt <= 0.264\ngini = 0.204\nsamples = 78\nvalue = [69, 9]", fillcolor="#e89153"] ;
744 -> 760 ;
761 [label="gini = 0.0\nsamples = 1\nvalue = [0, 1]", fillcolor="#399de5"] ;
760 -> 761 ;
762 [label="mrt <= 1.639\ngini = 0.186\nsamples = 77\nvalue = [69, 8]", fillcolor="#e89050"] ;
760 -> 762 ;
763 [label="school <= 0.255\ngini = 0.14\nsamples = 66\nvalue = [61, 5]", fillcolor="#e78b49"] ;
762 -> 763 ;
764 [label="gini = 0.0\nsamples = 28\nvalue = [28, 0]", fillcolor="#e58139"] ;
763 -> 764 ;
765 [label="school <= 0.257\ngini = 0.229\nsamples = 38\nvalue = [33, 5]", fillcolor="#e99457"] ;
763 -> 765 ;
766 [label="gini = 0.0\nsamples = 1\nvalue = [0, 1]", fillcolor="#399de5"] ;
765 -> 766 ;
767 [label="rob <= 1.789\ngini = 0.193\nsamples = 37\nvalue = [33, 4]", fillcolor="#e89051"] ;
765 -> 767 ;
768 [label="rob <= 1.391\ngini = 0.42\nsamples = 10\nvalue = [7, 3]", fillcolor="#f0b78e"] ;
767 -> 768 ;
769 [label="gini = 0.0\nsamples = 5\nvalue = [5, 0]", fillcolor="#e58139"] ;
768 -> 769 ;
770 [label="Feature4 <= 1.234\ngini = 0.48\nsamples = 5\nvalue = [2, 3]", fillcolor="#bddef6"] ;
768 -> 770 ;
771 [label="gini = 0.0\nsamples = 3\nvalue = [0, 3]", fillcolor="#399de5"] ;
770 -> 771 ;
772 [label="gini = 0.0\nsamples = 2\nvalue = [2, 0]", fillcolor="#e58139"] ;
770 -> 772 ;
773 [label="gini = 0.071\nsamples = 27\nvalue = [26, 1]", fillcolor="#e68641"] ;
767 -> 773 ;
774 [label="Feature2 <= 4.5\ngini = 0.397\nsamples = 11\nvalue = [8, 3]", fillcolor="#efb083"] ;
762 -> 774 ;
775 [label="gini = 0.0\nsamples = 7\nvalue = [7, 0]", fillcolor="#e58139"] ;
774 -> 775 ;
776 [label="idle <= 613.08\ngini = 0.375\nsamples = 4\nvalue = [1, 3]", fillcolor="#7bbeee"] ;
774 -> 776 ;
777 [label="gini = 0.0\nsamples = 1\nvalue = [1, 0]", fillcolor="#e58139"] ;
776 -> 777 ;
778 [label="gini = 0.0\nsamples = 3\nvalue = [0, 3]", fillcolor="#399de5"] ;
776 -> 778 ;
779 [label="Feature1 <= 0.128\ngini = 0.32\nsamples = 5\nvalue = [1, 4]", fillcolor="#6ab6ec"] ;
743 -> 779 ;
780 [label="gini = 0.0\nsamples = 1\nvalue = [1, 0]", fillcolor="#e58139"] ;
779 -> 780 ;
781 [label="gini = 0.0\nsamples = 4\nvalue = [0, 4]", fillcolor="#399de5"] ;
779 -> 781 ;
782 [label="school <= 0.196\ngini = 0.219\nsamples = 8\nvalue = [1, 7]", fillcolor="#55abe9"] ;
742 -> 782 ;
783 [label="gini = 0.0\nsamples = 1\nvalue = [1, 0]", fillcolor="#e58139"] ;
782 -> 783 ;
784 [label="gini = 0.0\nsamples = 7\nvalue = [0, 7]", fillcolor="#399de5"] ;
782 -> 784 ;
785 [label="Feature1 <= 0.408\ngini = 0.494\nsamples = 101\nvalue = [45, 56]", fillcolor="#d8ecfa"] ;
741 -> 785 ;
786 [label="rob <= 2.02\ngini = 0.431\nsamples = 70\nvalue = [22, 48]", fillcolor="#94caf1"] ;
785 -> 786 ;
787 [label="Feature1 <= 0.133\ngini = 0.496\nsamples = 33\nvalue = [18, 15]", fillcolor="#fbeade"] ;
786 -> 787 ;
788 [label="school <= 0.376\ngini = 0.255\nsamples = 20\nvalue = [17, 3]", fillcolor="#ea975c"] ;
787 -> 788 ;
789 [label="gini = 0.0\nsamples = 1\nvalue = [0, 1]", fillcolor="#399de5"] ;
788 -> 789 ;
790 [label="school <= 0.623\ngini = 0.188\nsamples = 19\nvalue = [17, 2]", fillcolor="#e89050"] ;
788 -> 790 ;
791 [label="gini = 0.105\nsamples = 18\nvalue = [17, 1]", fillcolor="#e78845"] ;
790 -> 791 ;
792 [label="gini = 0.0\nsamples = 1\nvalue = [0, 1]", fillcolor="#399de5"] ;
790 -> 792 ;
793 [label="gini = 0.142\nsamples = 13\nvalue = [1, 12]", fillcolor="#49a5e7"] ;
787 -> 793 ;
794 [label="park <= 0.559\ngini = 0.193\nsamples = 37\nvalue = [4, 33]", fillcolor="#51a9e8"] ;
786 -> 794 ;
795 [label="rob <= 2.819\ngini = 0.153\nsamples = 36\nvalue = [3, 33]", fillcolor="#4ba6e7"] ;
794 -> 795 ;
796 [label="gini = 0.0\nsamples = 28\nvalue = [0, 28]", fillcolor="#399de5"] ;
795 -> 796 ;
797 [label="rob <= 2.892\ngini = 0.469\nsamples = 8\nvalue = [3, 5]", fillcolor="#b0d8f5"] ;
795 -> 797 ;
798 [label="gini = 0.0\nsamples = 1\nvalue = [1, 0]", fillcolor="#e58139"] ;
797 -> 798 ;
799 [label="Feature4 <= 0.821\ngini = 0.408\nsamples = 7\nvalue = [2, 5]", fillcolor="#88c4ef"] ;
797 -> 799 ;
800 [label="gini = 0.0\nsamples = 1\nvalue = [1, 0]", fillcolor="#e58139"] ;
799 -> 800 ;
801 [label="Feature1 <= 0.292\ngini = 0.278\nsamples = 6\nvalue = [1, 5]", fillcolor="#61b1ea"] ;
799 -> 801 ;
802 [label="gini = 0.0\nsamples = 5\nvalue = [0, 5]", fillcolor="#399de5"] ;
801 -> 802 ;
803 [label="gini = 0.0\nsamples = 1\nvalue = [1, 0]", fillcolor="#e58139"] ;
801 -> 803 ;
804 [label="gini = 0.0\nsamples = 1\nvalue = [1, 0]", fillcolor="#e58139"] ;
794 -> 804 ;
805 [label="mrt <= 1.173\ngini = 0.383\nsamples = 31\nvalue = [23, 8]", fillcolor="#eead7e"] ;
785 -> 805 ;
806 [label="gini = 0.0\nsamples = 5\nvalue = [0, 5]", fillcolor="#399de5"] ;
805 -> 806 ;
807 [label="rob <= 3.356\ngini = 0.204\nsamples = 26\nvalue = [23, 3]", fillcolor="#e89153"] ;
805 -> 807 ;
808 [label="gini = 0.0\nsamples = 19\nvalue = [19, 0]", fillcolor="#e58139"] ;
807 -> 808 ;
809 [label="Feature7 <= 23.018\ngini = 0.49\nsamples = 7\nvalue = [4, 3]", fillcolor="#f8e0ce"] ;
807 -> 809 ;
810 [label="gini = 0.0\nsamples = 2\nvalue = [0, 2]", fillcolor="#399de5"] ;
809 -> 810 ;
811 [label="Feature4 <= 8.117\ngini = 0.32\nsamples = 5\nvalue = [4, 1]", fillcolor="#eca06a"] ;
809 -> 811 ;
812 [label="gini = 0.0\nsamples = 4\nvalue = [4, 0]", fillcolor="#e58139"] ;
811 -> 812 ;
813 [label="gini = 0.0\nsamples = 1\nvalue = [0, 1]", fillcolor="#399de5"] ;
811 -> 813 ;
814 [label="mrt <= 0.299\ngini = 0.423\nsamples = 1458\nvalue = [1016, 442]", fillcolor="#f0b88f"] ;
0 -> 814 [labeldistance=2.5, labelangle=-45, headlabel="False"] ;
815 [label="mrt <= 0.059\ngini = 0.492\nsamples = 285\nvalue = [124, 161]", fillcolor="#d1e8f9"] ;
814 -> 815 ;
816 [label="park <= 0.066\ngini = 0.122\nsamples = 46\nvalue = [3, 43]", fillcolor="#47a4e7"] ;
815 -> 816 ;
817 [label="mrt <= 0.048\ngini = 0.375\nsamples = 4\nvalue = [3, 1]", fillcolor="#eeab7b"] ;
816 -> 817 ;
818 [label="gini = 0.0\nsamples = 3\nvalue = [3, 0]", fillcolor="#e58139"] ;
817 -> 818 ;
819 [label="gini = 0.0\nsamples = 1\nvalue = [0, 1]", fillcolor="#399de5"] ;
817 -> 819 ;
820 [label="gini = 0.0\nsamples = 42\nvalue = [0, 42]", fillcolor="#399de5"] ;
816 -> 820 ;
821 [label="mrt <= 0.275\ngini = 0.5\nsamples = 239\nvalue = [121, 118]", fillcolor="#fefcfa"] ;
815 -> 821 ;
822 [label="rob <= 0.495\ngini = 0.486\nsamples = 183\nvalue = [107, 76]", fillcolor="#f7dac6"] ;
821 -> 822 ;
823 [label="rob <= 0.054\ngini = 0.142\nsamples = 13\nvalue = [1, 12]", fillcolor="#49a5e7"] ;
822 -> 823 ;
824 [label="gini = 0.0\nsamples = 1\nvalue = [1, 0]", fillcolor="#e58139"] ;
823 -> 824 ;
825 [label="gini = 0.0\nsamples = 12\nvalue = [0, 12]", fillcolor="#399de5"] ;
823 -> 825 ;
826 [label="school <= 0.084\ngini = 0.469\nsamples = 170\nvalue = [106, 64]", fillcolor="#f5cdb1"] ;
822 -> 826 ;
827 [label="park <= 0.129\ngini = 0.291\nsamples = 17\nvalue = [3, 14]", fillcolor="#63b2eb"] ;
826 -> 827 ;
828 [label="gini = 0.0\nsamples = 2\nvalue = [2, 0]", fillcolor="#e58139"] ;
827 -> 828 ;
829 [label="school <= 0.038\ngini = 0.124\nsamples = 15\nvalue = [1, 14]", fillcolor="#47a4e7"] ;
827 -> 829 ;
830 [label="gini = 0.0\nsamples = 1\nvalue = [1, 0]", fillcolor="#e58139"] ;
829 -> 830 ;
831 [label="gini = 0.0\nsamples = 14\nvalue = [0, 14]", fillcolor="#399de5"] ;
829 -> 831 ;
832 [label="school <= 0.432\ngini = 0.44\nsamples = 153\nvalue = [103, 50]", fillcolor="#f2be99"] ;
826 -> 832 ;
833 [label="rob <= 1.616\ngini = 0.396\nsamples = 136\nvalue = [99, 37]", fillcolor="#efb083"] ;
832 -> 833 ;
834 [label="rob <= 0.959\ngini = 0.259\nsamples = 85\nvalue = [72, 13]", fillcolor="#ea985d"] ;
833 -> 834 ;
835 [label="rob <= 0.865\ngini = 0.5\nsamples = 8\nvalue = [4, 4]", fillcolor="#ffffff"] ;
834 -> 835 ;
836 [label="gini = 0.0\nsamples = 4\nvalue = [4, 0]", fillcolor="#e58139"] ;
835 -> 836 ;
837 [label="gini = 0.0\nsamples = 4\nvalue = [0, 4]", fillcolor="#399de5"] ;
835 -> 837 ;
838 [label="rob <= 1.339\ngini = 0.206\nsamples = 77\nvalue = [68, 9]", fillcolor="#e89253"] ;
834 -> 838 ;
839 [label="Feature5 <= 0.001\ngini = 0.081\nsamples = 47\nvalue = [45, 2]", fillcolor="#e68742"] ;
838 -> 839 ;
840 [label="park <= 0.114\ngini = 0.375\nsamples = 8\nvalue = [6, 2]", fillcolor="#eeab7b"] ;
839 -> 840 ;
841 [label="gini = 0.0\nsamples = 6\nvalue = [6, 0]", fillcolor="#e58139"] ;
840 -> 841 ;
842 [label="gini = 0.0\nsamples = 2\nvalue = [0, 2]", fillcolor="#399de5"] ;
840 -> 842 ;
843 [label="gini = 0.0\nsamples = 39\nvalue = [39, 0]", fillcolor="#e58139"] ;
839 -> 843 ;
844 [label="rob <= 1.352\ngini = 0.358\nsamples = 30\nvalue = [23, 7]", fillcolor="#eda775"] ;
838 -> 844 ;
845 [label="gini = 0.0\nsamples = 3\nvalue = [0, 3]", fillcolor="#399de5"] ;
844 -> 845 ;
846 [label="school <= 0.194\ngini = 0.252\nsamples = 27\nvalue = [23, 4]", fillcolor="#ea975b"] ;
844 -> 846 ;
847 [label="gini = 0.0\nsamples = 11\nvalue = [11, 0]", fillcolor="#e58139"] ;
846 -> 847 ;
848 [label="rob <= 1.539\ngini = 0.375\nsamples = 16\nvalue = [12, 4]", fillcolor="#eeab7b"] ;
846 -> 848 ;
849 [label="Feature7 <= 25.056\ngini = 0.26\nsamples = 13\nvalue = [11, 2]", fillcolor="#ea985d"] ;
848 -> 849 ;
850 [label="gini = 0.0\nsamples = 1\nvalue = [0, 1]", fillcolor="#399de5"] ;
849 -> 850 ;
851 [label="gini = 0.153\nsamples = 12\nvalue = [11, 1]", fillcolor="#e78c4b"] ;
849 -> 851 ;
852 [label="Feature1 <= 0.011\ngini = 0.444\nsamples = 3\nvalue = [1, 2]", fillcolor="#9ccef2"] ;
848 -> 852 ;
853 [label="gini = 0.0\nsamples = 2\nvalue = [0, 2]", fillcolor="#399de5"] ;
852 -> 853 ;
854 [label="gini = 0.0\nsamples = 1\nvalue = [1, 0]", fillcolor="#e58139"] ;
852 -> 854 ;
855 [label="school <= 0.194\ngini = 0.498\nsamples = 51\nvalue = [27, 24]", fillcolor="#fcf1e9"] ;
833 -> 855 ;
856 [label="mrt <= 0.201\ngini = 0.219\nsamples = 16\nvalue = [14, 2]", fillcolor="#e99355"] ;
855 -> 856 ;
857 [label="gini = 0.0\nsamples = 14\nvalue = [14, 0]", fillcolor="#e58139"] ;
856 -> 857 ;
858 [label="gini = 0.0\nsamples = 2\nvalue = [0, 2]", fillcolor="#399de5"] ;
856 -> 858 ;
859 [label="school <= 0.259\ngini = 0.467\nsamples = 35\nvalue = [13, 22]", fillcolor="#aed7f4"] ;
855 -> 859 ;
860 [label="mrt <= 0.257\ngini = 0.231\nsamples = 15\nvalue = [2, 13]", fillcolor="#57ace9"] ;
859 -> 860 ;
861 [label="gini = 0.133\nsamples = 14\nvalue = [1, 13]", fillcolor="#48a5e7"] ;
860 -> 861 ;
862 [label="gini = 0.0\nsamples = 1\nvalue = [1, 0]", fillcolor="#e58139"] ;
860 -> 862 ;
863 [label="rob <= 1.793\ngini = 0.495\nsamples = 20\nvalue = [11, 9]", fillcolor="#fae8db"] ;
859 -> 863 ;
864 [label="gini = 0.0\nsamples = 3\nvalue = [0, 3]", fillcolor="#399de5"] ;
863 -> 864 ;
865 [label="Feature1 <= 0.015\ngini = 0.457\nsamples = 17\nvalue = [11, 6]", fillcolor="#f3c6a5"] ;
863 -> 865 ;
866 [label="gini = 0.18\nsamples = 10\nvalue = [9, 1]", fillcolor="#e88f4f"] ;
865 -> 866 ;
867 [label="park <= 0.23\ngini = 0.408\nsamples = 7\nvalue = [2, 5]", fillcolor="#88c4ef"] ;
865 -> 867 ;
868 [label="gini = 0.0\nsamples = 1\nvalue = [1, 0]", fillcolor="#e58139"] ;
867 -> 868 ;
869 [label="park <= 0.325\ngini = 0.278\nsamples = 6\nvalue = [1, 5]", fillcolor="#61b1ea"] ;
867 -> 869 ;
870 [label="gini = 0.0\nsamples = 5\nvalue = [0, 5]", fillcolor="#399de5"] ;
869 -> 870 ;
871 [label="gini = 0.0\nsamples = 1\nvalue = [1, 0]", fillcolor="#e58139"] ;
869 -> 871 ;
872 [label="mrt <= 0.229\ngini = 0.36\nsamples = 17\nvalue = [4, 13]", fillcolor="#76bbed"] ;
832 -> 872 ;
873 [label="rob <= 1.623\ngini = 0.142\nsamples = 13\nvalue = [1, 12]", fillcolor="#49a5e7"] ;
872 -> 873 ;
874 [label="gini = 0.0\nsamples = 12\nvalue = [0, 12]", fillcolor="#399de5"] ;
873 -> 874 ;
875 [label="gini = 0.0\nsamples = 1\nvalue = [1, 0]", fillcolor="#e58139"] ;
873 -> 875 ;
876 [label="Feature7 <= 25.848\ngini = 0.375\nsamples = 4\nvalue = [3, 1]", fillcolor="#eeab7b"] ;
872 -> 876 ;
877 [label="gini = 0.0\nsamples = 1\nvalue = [0, 1]", fillcolor="#399de5"] ;
876 -> 877 ;
878 [label="gini = 0.0\nsamples = 3\nvalue = [3, 0]", fillcolor="#e58139"] ;
876 -> 878 ;
879 [label="rob <= 1.294\ngini = 0.375\nsamples = 56\nvalue = [14, 42]", fillcolor="#7bbeee"] ;
821 -> 879 ;
880 [label="monitor <= 1335.0\ngini = 0.375\nsamples = 12\nvalue = [9, 3]", fillcolor="#eeab7b"] ;
879 -> 880 ;
881 [label="gini = 0.0\nsamples = 3\nvalue = [0, 3]", fillcolor="#399de5"] ;
880 -> 881 ;
882 [label="gini = 0.0\nsamples = 9\nvalue = [9, 0]", fillcolor="#e58139"] ;
880 -> 882 ;
883 [label="school <= 0.11\ngini = 0.201\nsamples = 44\nvalue = [5, 39]", fillcolor="#52aae8"] ;
879 -> 883 ;
884 [label="robbery <= 2.0\ngini = 0.444\nsamples = 6\nvalue = [4, 2]", fillcolor="#f2c09c"] ;
883 -> 884 ;
885 [label="gini = 0.0\nsamples = 2\nvalue = [0, 2]", fillcolor="#399de5"] ;
884 -> 885 ;
886 [label="gini = 0.0\nsamples = 4\nvalue = [4, 0]", fillcolor="#e58139"] ;
884 -> 886 ;
887 [label="gini = 0.051\nsamples = 38\nvalue = [1, 37]", fillcolor="#3ea0e6"] ;
883 -> 887 ;
888 [label="Feature4 <= 1.159\ngini = 0.364\nsamples = 1173\nvalue = [892, 281]", fillcolor="#eda977"] ;
814 -> 888 ;
889 [label="rob <= 3.614\ngini = 0.412\nsamples = 939\nvalue = [666, 273]", fillcolor="#f0b58a"] ;
888 -> 889 ;
890 [label="school <= 0.71\ngini = 0.384\nsamples = 860\nvalue = [637, 223]", fillcolor="#eead7e"] ;
889 -> 890 ;
891 [label="school <= 0.129\ngini = 0.401\nsamples = 801\nvalue = [579, 222]", fillcolor="#efb185"] ;
890 -> 891 ;
892 [label="park <= 0.091\ngini = 0.477\nsamples = 160\nvalue = [97, 63]", fillcolor="#f6d3ba"] ;
891 -> 892 ;
893 [label="mrt <= 0.516\ngini = 0.32\nsamples = 15\nvalue = [3, 12]", fillcolor="#6ab6ec"] ;
892 -> 893 ;
894 [label="gini = 0.0\nsamples = 10\nvalue = [0, 10]", fillcolor="#399de5"] ;
893 -> 894 ;
895 [label="Feature8 <= 0.5\ngini = 0.48\nsamples = 5\nvalue = [3, 2]", fillcolor="#f6d5bd"] ;
893 -> 895 ;
896 [label="gini = 0.0\nsamples = 2\nvalue = [0, 2]", fillcolor="#399de5"] ;
895 -> 896 ;
897 [label="gini = 0.0\nsamples = 3\nvalue = [3, 0]", fillcolor="#e58139"] ;
895 -> 897 ;
898 [label="Feature5 <= 0.002\ngini = 0.456\nsamples = 145\nvalue = [94, 51]", fillcolor="#f3c5a4"] ;
892 -> 898 ;
899 [label="park <= 0.121\ngini = 0.5\nsamples = 66\nvalue = [33, 33]", fillcolor="#ffffff"] ;
898 -> 899 ;
900 [label="gini = 0.0\nsamples = 9\nvalue = [9, 0]", fillcolor="#e58139"] ;
899 -> 900 ;
901 [label="Feature1 <= 0.024\ngini = 0.488\nsamples = 57\nvalue = [24, 33]", fillcolor="#c9e4f8"] ;
899 -> 901 ;
902 [label="Feature4 <= 0.297\ngini = 0.399\nsamples = 40\nvalue = [11, 29]", fillcolor="#84c2ef"] ;
901 -> 902 ;
903 [label="school <= 0.11\ngini = 0.219\nsamples = 8\nvalue = [7, 1]", fillcolor="#e99355"] ;
902 -> 903 ;
904 [label="gini = 0.0\nsamples = 7\nvalue = [7, 0]", fillcolor="#e58139"] ;
903 -> 904 ;
905 [label="gini = 0.0\nsamples = 1\nvalue = [0, 1]", fillcolor="#399de5"] ;
903 -> 905 ;
906 [label="rob <= 1.139\ngini = 0.219\nsamples = 32\nvalue = [4, 28]", fillcolor="#55abe9"] ;
902 -> 906 ;
907 [label="gini = 0.0\nsamples = 13\nvalue = [0, 13]", fillcolor="#399de5"] ;
906 -> 907 ;
908 [label="rob <= 1.472\ngini = 0.332\nsamples = 19\nvalue = [4, 15]", fillcolor="#6eb7ec"] ;
906 -> 908 ;
909 [label="gini = 0.0\nsamples = 2\nvalue = [2, 0]", fillcolor="#e58139"] ;
908 -> 909 ;
910 [label="Feature1 <= 0.012\ngini = 0.208\nsamples = 17\nvalue = [2, 15]", fillcolor="#53aae8"] ;
908 -> 910 ;
911 [label="mrt <= 0.936\ngini = 0.408\nsamples = 7\nvalue = [2, 5]", fillcolor="#88c4ef"] ;
910 -> 911 ;
912 [label="gini = 0.0\nsamples = 4\nvalue = [0, 4]", fillcolor="#399de5"] ;
911 -> 912 ;
913 [label="Feature1 <= 0.002\ngini = 0.444\nsamples = 3\nvalue = [2, 1]", fillcolor="#f2c09c"] ;
911 -> 913 ;
914 [label="gini = 0.0\nsamples = 1\nvalue = [0, 1]", fillcolor="#399de5"] ;
913 -> 914 ;
915 [label="gini = 0.0\nsamples = 2\nvalue = [2, 0]", fillcolor="#e58139"] ;
913 -> 915 ;
916 [label="gini = 0.0\nsamples = 10\nvalue = [0, 10]", fillcolor="#399de5"] ;
910 -> 916 ;
917 [label="rob <= 2.033\ngini = 0.36\nsamples = 17\nvalue = [13, 4]", fillcolor="#eda876"] ;
901 -> 917 ;
918 [label="park <= 0.312\ngini = 0.48\nsamples = 5\nvalue = [2, 3]", fillcolor="#bddef6"] ;
917 -> 918 ;
919 [label="gini = 0.0\nsamples = 2\nvalue = [0, 2]", fillcolor="#399de5"] ;
918 -> 919 ;
920 [label="Feature4 <= 0.421\ngini = 0.444\nsamples = 3\nvalue = [2, 1]", fillcolor="#f2c09c"] ;
918 -> 920 ;
921 [label="gini = 0.0\nsamples = 1\nvalue = [0, 1]", fillcolor="#399de5"] ;
920 -> 921 ;
922 [label="gini = 0.0\nsamples = 2\nvalue = [2, 0]", fillcolor="#e58139"] ;
920 -> 922 ;
923 [label="Feature4 <= 0.57\ngini = 0.153\nsamples = 12\nvalue = [11, 1]", fillcolor="#e78c4b"] ;
917 -> 923 ;
924 [label="gini = 0.0\nsamples = 1\nvalue = [0, 1]", fillcolor="#399de5"] ;
923 -> 924 ;
925 [label="gini = 0.0\nsamples = 11\nvalue = [11, 0]", fillcolor="#e58139"] ;
923 -> 925 ;
926 [label="park <= 0.317\ngini = 0.352\nsamples = 79\nvalue = [61, 18]", fillcolor="#eda673"] ;
898 -> 926 ;
927 [label="rob <= 0.842\ngini = 0.293\nsamples = 73\nvalue = [60, 13]", fillcolor="#eb9c64"] ;
926 -> 927 ;
928 [label="gini = 0.0\nsamples = 24\nvalue = [24, 0]", fillcolor="#e58139"] ;
927 -> 928 ;
929 [label="park <= 0.199\ngini = 0.39\nsamples = 49\nvalue = [36, 13]", fillcolor="#eeae80"] ;
927 -> 929 ;
930 [label="park <= 0.107\ngini = 0.486\nsamples = 24\nvalue = [14, 10]", fillcolor="#f8dbc6"] ;
929 -> 930 ;
931 [label="gini = 0.0\nsamples = 6\nvalue = [6, 0]", fillcolor="#e58139"] ;
930 -> 931 ;
932 [label="Feature4 <= 0.296\ngini = 0.494\nsamples = 18\nvalue = [8, 10]", fillcolor="#d7ebfa"] ;
930 -> 932 ;
933 [label="school <= 0.092\ngini = 0.444\nsamples = 15\nvalue = [5, 10]", fillcolor="#9ccef2"] ;
932 -> 933 ;
934 [label="park <= 0.148\ngini = 0.469\nsamples = 8\nvalue = [5, 3]", fillcolor="#f5cdb0"] ;
933 -> 934 ;
935 [label="Feature1 <= 0.005\ngini = 0.375\nsamples = 4\nvalue = [1, 3]", fillcolor="#7bbeee"] ;
934 -> 935 ;
936 [label="gini = 0.0\nsamples = 3\nvalue = [0, 3]", fillcolor="#399de5"] ;
935 -> 936 ;
937 [label="gini = 0.0\nsamples = 1\nvalue = [1, 0]", fillcolor="#e58139"] ;
935 -> 937 ;
938 [label="gini = 0.0\nsamples = 4\nvalue = [4, 0]", fillcolor="#e58139"] ;
934 -> 938 ;
939 [label="gini = 0.0\nsamples = 7\nvalue = [0, 7]", fillcolor="#399de5"] ;
933 -> 939 ;
940 [label="gini = 0.0\nsamples = 3\nvalue = [3, 0]", fillcolor="#e58139"] ;
932 -> 940 ;
941 [label="Feature1 <= 0.009\ngini = 0.211\nsamples = 25\nvalue = [22, 3]", fillcolor="#e99254"] ;
929 -> 941 ;
942 [label="rob <= 1.388\ngini = 0.42\nsamples = 10\nvalue = [7, 3]", fillcolor="#f0b78e"] ;
941 -> 942 ;
943 [label="Feature4 <= 0.216\ngini = 0.48\nsamples = 5\nvalue = [2, 3]", fillcolor="#bddef6"] ;
942 -> 943 ;
944 [label="gini = 0.0\nsamples = 3\nvalue = [0, 3]", fillcolor="#399de5"] ;
943 -> 944 ;
945 [label="gini = 0.0\nsamples = 2\nvalue = [2, 0]", fillcolor="#e58139"] ;
943 -> 945 ;
946 [label="gini = 0.0\nsamples = 5\nvalue = [5, 0]", fillcolor="#e58139"] ;
942 -> 946 ;
947 [label="gini = 0.0\nsamples = 15\nvalue = [15, 0]", fillcolor="#e58139"] ;
941 -> 947 ;
948 [label="rob <= 0.384\ngini = 0.278\nsamples = 6\nvalue = [1, 5]", fillcolor="#61b1ea"] ;
926 -> 948 ;
949 [label="gini = 0.0\nsamples = 1\nvalue = [1, 0]", fillcolor="#e58139"] ;
948 -> 949 ;
950 [label="gini = 0.0\nsamples = 5\nvalue = [0, 5]", fillcolor="#399de5"] ;
948 -> 950 ;
951 [label="rob <= 0.556\ngini = 0.373\nsamples = 641\nvalue = [482, 159]", fillcolor="#eeab7a"] ;
891 -> 951 ;
952 [label="school <= 0.26\ngini = 0.5\nsamples = 61\nvalue = [31, 30]", fillcolor="#fefbf9"] ;
951 -> 952 ;
953 [label="publand <= 19744236.0\ngini = 0.35\nsamples = 31\nvalue = [24, 7]", fillcolor="#eda673"] ;
952 -> 953 ;
954 [label="park <= 0.123\ngini = 0.469\nsamples = 8\nvalue = [3, 5]", fillcolor="#b0d8f5"] ;
953 -> 954 ;
955 [label="gini = 0.0\nsamples = 3\nvalue = [3, 0]", fillcolor="#e58139"] ;
954 -> 955 ;
956 [label="gini = 0.0\nsamples = 5\nvalue = [0, 5]", fillcolor="#399de5"] ;
954 -> 956 ;
957 [label="rob <= 0.102\ngini = 0.159\nsamples = 23\nvalue = [21, 2]", fillcolor="#e78d4c"] ;
953 -> 957 ;
958 [label="gini = 0.0\nsamples = 1\nvalue = [0, 1]", fillcolor="#399de5"] ;
957 -> 958 ;
959 [label="gini = 0.087\nsamples = 22\nvalue = [21, 1]", fillcolor="#e68742"] ;
957 -> 959 ;
960 [label="park <= 0.189\ngini = 0.358\nsamples = 30\nvalue = [7, 23]", fillcolor="#75bbed"] ;
952 -> 960 ;
961 [label="Feature1 <= 0.014\ngini = 0.1\nsamples = 19\nvalue = [1, 18]", fillcolor="#44a2e6"] ;
960 -> 961 ;
962 [label="gini = 0.0\nsamples = 1\nvalue = [1, 0]", fillcolor="#e58139"] ;
961 -> 962 ;
963 [label="gini = 0.0\nsamples = 18\nvalue = [0, 18]", fillcolor="#399de5"] ;
961 -> 963 ;
964 [label="Feature1 <= 0.082\ngini = 0.496\nsamples = 11\nvalue = [6, 5]", fillcolor="#fbeade"] ;
960 -> 964 ;
965 [label="gini = 0.0\nsamples = 5\nvalue = [5, 0]", fillcolor="#e58139"] ;
964 -> 965 ;
966 [label="gini = 0.278\nsamples = 6\nvalue = [1, 5]", fillcolor="#61b1ea"] ;
964 -> 966 ;
967 [label="rob <= 1.249\ngini = 0.346\nsamples = 580\nvalue = [451, 129]", fillcolor="#eca572"] ;
951 -> 967 ;
968 [label="Feature1 <= 0.327\ngini = 0.241\nsamples = 243\nvalue = [209, 34]", fillcolor="#e99559"] ;
967 -> 968 ;
969 [label="mrt <= 0.595\ngini = 0.22\nsamples = 239\nvalue = [209, 30]", fillcolor="#e99355"] ;
968 -> 969 ;
970 [label="school <= 0.589\ngini = 0.101\nsamples = 113\nvalue = [107, 6]", fillcolor="#e68844"] ;
969 -> 970 ;
971 [label="gini = 0.085\nsamples = 112\nvalue = [107, 5]", fillcolor="#e68742"] ;
970 -> 971 ;
972 [label="gini = 0.0\nsamples = 1\nvalue = [0, 1]", fillcolor="#399de5"] ;
970 -> 972 ;
973 [label="mrt <= 0.597\ngini = 0.308\nsamples = 126\nvalue = [102, 24]", fillcolor="#eb9f68"] ;
969 -> 973 ;
974 [label="gini = 0.0\nsamples = 2\nvalue = [0, 2]", fillcolor="#399de5"] ;
973 -> 974 ;
975 [label="park <= 0.264\ngini = 0.292\nsamples = 124\nvalue = [102, 22]", fillcolor="#eb9c64"] ;
973 -> 975 ;
976 [label="idle <= 189.625\ngini = 0.202\nsamples = 79\nvalue = [70, 9]", fillcolor="#e89152"] ;
975 -> 976 ;
977 [label="gini = 0.0\nsamples = 1\nvalue = [0, 1]", fillcolor="#399de5"] ;
976 -> 977 ;
978 [label="school <= 0.23\ngini = 0.184\nsamples = 78\nvalue = [70, 8]", fillcolor="#e88f50"] ;
976 -> 978 ;
979 [label="Feature4 <= 0.268\ngini = 0.337\nsamples = 28\nvalue = [22, 6]", fillcolor="#eca36f"] ;
978 -> 979 ;
980 [label="park <= 0.16\ngini = 0.444\nsamples = 3\nvalue = [1, 2]", fillcolor="#9ccef2"] ;
979 -> 980 ;
981 [label="gini = 0.0\nsamples = 1\nvalue = [1, 0]", fillcolor="#e58139"] ;
980 -> 981 ;
982 [label="gini = 0.0\nsamples = 2\nvalue = [0, 2]", fillcolor="#399de5"] ;
980 -> 982 ;
983 [label="Feature4 <= 0.368\ngini = 0.269\nsamples = 25\nvalue = [21, 4]", fillcolor="#ea995f"] ;
979 -> 983 ;
984 [label="gini = 0.1\nsamples = 19\nvalue = [18, 1]", fillcolor="#e68844"] ;
983 -> 984 ;
985 [label="school <= 0.195\ngini = 0.5\nsamples = 6\nvalue = [3, 3]", fillcolor="#ffffff"] ;
983 -> 985 ;
986 [label="gini = 0.0\nsamples = 3\nvalue = [0, 3]", fillcolor="#399de5"] ;
985 -> 986 ;
987 [label="gini = 0.0\nsamples = 3\nvalue = [3, 0]", fillcolor="#e58139"] ;
985 -> 987 ;
988 [label="school <= 0.429\ngini = 0.077\nsamples = 50\nvalue = [48, 2]", fillcolor="#e68641"] ;
978 -> 988 ;
989 [label="gini = 0.0\nsamples = 42\nvalue = [42, 0]", fillcolor="#e58139"] ;
988 -> 989 ;
990 [label="Feature3 <= 1.5\ngini = 0.375\nsamples = 8\nvalue = [6, 2]", fillcolor="#eeab7b"] ;
988 -> 990 ;
991 [label="gini = 0.0\nsamples = 6\nvalue = [6, 0]", fillcolor="#e58139"] ;
990 -> 991 ;
992 [label="gini = 0.0\nsamples = 2\nvalue = [0, 2]", fillcolor="#399de5"] ;
990 -> 992 ;
993 [label="park <= 0.268\ngini = 0.411\nsamples = 45\nvalue = [32, 13]", fillcolor="#f0b489"] ;
975 -> 993 ;
994 [label="gini = 0.0\nsamples = 5\nvalue = [0, 5]", fillcolor="#399de5"] ;
993 -> 994 ;
